{"layers": [{"out_sx": 1, "out_sy": 1, "layer_type": "input", "out_depth": 68}, {"out_sy": 1, "num_inputs": 68, "layer_type": "fc", "out_sx": 1, "out_depth": 64, "filters": [{"depth": 68, "sx": 1, "sy": 1, "w": {"16": 0.2024032473564148, "6": 0.02522927150130272, "35": 0.18911315500736237, "57": 0.3287120759487152, "0": 0.04451679438352585, "29": -0.04047127440571785, "36": 0.25059354305267334, "9": -0.18500995635986328, "4": -0.09191939979791641, "34": 0.542629599571228, "53": -0.34624379873275757, "54": -0.310045450925827, "60": 0.348721981048584, "18": -0.187352254986763, "52": -0.3220043480396271, "63": 0.137893944978714, "67": 0.22418925166130066, "11": 0.4720796048641205, "61": 0.5138399004936218, "22": 0.032219089567661285, "5": -0.20954111218452454, "47": 0.6238741278648376, "64": -0.12646569311618805, "26": 0.34557345509529114, "62": 1.0325558185577393, "14": 0.43822646141052246, "65": -0.2524149417877197, "66": 0.15922337770462036, "33": 0.594115674495697, "59": 0.3466900587081909, "51": -0.3983893096446991, "32": 0.50263512134552, "27": -0.2063000500202179, "24": -0.1472238451242447, "25": 0.3953337073326111, "10": -0.15877766907215118, "48": 0.1468559205532074, "17": -0.05293760076165199, "2": 0.5497024655342102, "42": 0.07578830420970917, "8": -0.12145928293466568, "43": 0.00895148329436779, "1": 0.01699589006602764, "28": 1.4538140296936035, "31": -0.03007325530052185, "46": 0.18017107248306274, "38": 0.05557740479707718, "3": 0.5418670177459717, "49": 0.07675570994615555, "12": 0.04072714224457741, "37": 0.508371114730835, "7": -0.09279955178499222, "41": 0.12216662615537643, "15": 0.0460352823138237, "20": 0.09346823394298553, "39": 0.19706134498119354, "13": -0.13826984167099, "23": 0.31549590826034546, "19": 0.0334322415292263, "56": 0.45382097363471985, "58": 0.5070582628250122, "30": -0.0399773046374321, "40": 0.29611706733703613, "44": 0.33013230562210083, "55": -0.2388118952512741, "21": 0.5059669613838196, "45": 0.1347629576921463, "50": -0.01483010035008192}}, {"depth": 68, "sx": 1, "sy": 1, "w": {"16": -0.1899953931570053, "6": 0.41122007369995117, "35": -0.5741322636604309, "57": -0.6674990057945251, "0": -0.03613132983446121, "29": 0.8204343318939209, "36": -0.313287615776062, "9": 0.2579226493835449, "4": 0.18529736995697021, "34": -0.9418576955795288, "53": -0.5129879713058472, "54": -0.10572676360607147, "60": 0.025363832712173462, "18": 0.5853012204170227, "52": -0.2202090471982956, "63": -0.8885840773582458, "67": -0.4679766893386841, "11": -0.016266798600554466, "61": -0.27040600776672363, "22": 0.5486049056053162, "5": -0.23436543345451355, "47": -0.8377776145935059, "64": 0.20581687986850739, "26": 0.6275001764297485, "62": 0.49357110261917114, "14": 0.20203013718128204, "65": 0.24259018898010254, "66": -0.16522100567817688, "33": -0.9527527093887329, "59": -0.27445945143699646, "51": -0.5581470727920532, "32": -0.8914110064506531, "27": 0.021240098401904106, "24": 0.31708964705467224, "25": 0.31582075357437134, "10": 0.6172184944152832, "48": -0.9793933033943176, "17": 0.08132006973028183, "2": 0.6025869846343994, "42": -0.792706310749054, "8": -0.002200808608904481, "43": -0.8781818151473999, "1": 1.1490020751953125, "28": 0.7594069242477417, "31": -0.07157870382070541, "46": -1.007502794265747, "38": -0.6352863907814026, "3": -0.22258315980434418, "49": -0.7993307113647461, "12": -0.003764375112950802, "37": -0.628526508808136, "7": 0.640363872051239, "41": -1.0404547452926636, "15": -0.1293218433856964, "20": 0.7422612309455872, "39": -0.6324629783630371, "13": 0.04517819732427597, "23": -0.4373001456260681, "19": 0.621726393699646, "56": -0.7253057360649109, "58": -0.2528027892112732, "30": -0.0591360405087471, "40": -0.8102229833602905, "44": -1.0812585353851318, "55": 0.03619369864463806, "21": -0.22948122024536133, "45": -1.0609887838363647, "50": -0.7329182028770447}}, {"depth": 68, "sx": 1, "sy": 1, "w": {"16": 0.23221030831336975, "6": 0.6315276026725769, "35": 0.12528693675994873, "57": -0.09603793174028397, "0": -0.08085976541042328, "29": -0.12245365977287292, "36": 0.10380011051893234, "9": 0.015167344361543655, "4": 0.2549155056476593, "34": 0.29318341612815857, "53": -0.44232484698295593, "54": -0.3833524286746979, "60": -0.2815605103969574, "18": 0.28387218713760376, "52": -0.4866589903831482, "63": -0.58451908826828, "67": -1.6725631952285767, "11": 0.551826000213623, "61": -0.1580089032649994, "22": -0.0349542573094368, "5": 0.21539196372032166, "47": -0.6448470950126648, "64": -0.003830459201708436, "26": -0.22411589324474335, "62": -0.21965110301971436, "14": -0.10300245136022568, "65": -0.5048707723617554, "66": 0.18580009043216705, "33": -0.2360236942768097, "59": -0.2065829485654831, "51": -0.49057555198669434, "32": -0.6181920766830444, "27": 0.36037811636924744, "24": -0.09579259902238846, "25": 0.015846077352762222, "10": 1.3416162729263306, "48": -0.3006604313850403, "17": 0.4528081715106964, "2": 0.40802595019340515, "42": -0.5888690948486328, "8": -0.0344969779253006, "43": -0.7685853838920593, "1": 0.02171383425593376, "28": 0.6152293086051941, "31": 1.1704612970352173, "46": -0.07256805896759033, "38": -0.07953349500894547, "3": 0.04689033702015877, "49": -0.2861820459365845, "12": 0.032490141689777374, "37": 0.27345678210258484, "7": 0.44386133551597595, "41": -0.3070204555988312, "15": 0.22275999188423157, "20": 0.3999861478805542, "39": -0.312686562538147, "13": 0.6864127516746521, "23": 0.16194795072078705, "19": -0.15181845426559448, "56": -0.46499037742614746, "58": -0.13024917244911194, "30": -0.022358067333698273, "40": -0.40594908595085144, "44": -0.6456729769706726, "55": -0.4709068834781647, "21": 0.13391727209091187, "45": -1.5001195669174194, "50": -0.5422061681747437}}, {"depth": 68, "sx": 1, "sy": 1, "w": {"16": -0.040969349443912506, "6": 1.1061917543411255, "35": -0.24407869577407837, "57": -0.5586807727813721, "0": 0.14711427688598633, "29": -0.09918306767940521, "36": 0.10445863753557205, "9": 0.2312849462032318, "4": 0.3570860028266907, "34": -0.19720715284347534, "53": -0.9707892537117004, "54": -0.9787653684616089, "60": -0.6758241057395935, "18": 0.41095566749572754, "52": -0.846865713596344, "63": -0.46001461148262024, "67": -2.5955047607421875, "11": 0.7634664177894592, "61": -0.26808011531829834, "22": 0.27087876200675964, "5": -0.05769943445920944, "47": -0.5691207647323608, "64": 0.19851775467395782, "26": 0.4412948489189148, "62": -0.5177354216575623, "14": 0.17159457504749298, "65": -0.26384279131889343, "66": 0.031051091849803925, "33": -0.19087886810302734, "59": -0.40661320090293884, "51": -1.1273939609527588, "32": -0.3451937437057495, "27": -0.12531119585037231, "24": 0.6951525807380676, "25": 0.20111051201820374, "10": -0.13421373069286346, "48": -0.2930644452571869, "17": 0.15956810116767883, "2": -0.11364898085594177, "42": -0.6311182975769043, "8": 0.10216756165027618, "43": -0.38581520318984985, "1": -0.0679301917552948, "28": 0.18736706674098969, "31": 0.09944207221269608, "46": -0.2982127368450165, "38": 0.03169165179133415, "3": 0.7245814800262451, "49": -0.5246890783309937, "12": 0.4502328336238861, "37": -0.05664452537894249, "7": 0.8818162679672241, "41": -0.38905200362205505, "15": 0.21244695782661438, "20": 0.555169403553009, "39": -0.4853866994380951, "13": -0.007077419199049473, "23": 0.06590516865253448, "19": 0.6696198582649231, "56": -0.3939973711967468, "58": -0.9063510298728943, "30": 0.0497450977563858, "40": -0.3133167624473572, "44": -0.6838464736938477, "55": -0.20857322216033936, "21": -0.1733257919549942, "45": -0.2749963104724884, "50": -0.45240139961242676}}, {"depth": 68, "sx": 1, "sy": 1, "w": {"16": 0.08856780081987381, "6": 0.1978578120470047, "35": -0.12956149876117706, "57": 0.1210303083062172, "0": 0.04315054789185524, "29": 0.5639832615852356, "36": 0.17052175104618073, "9": -0.18385076522827148, "4": 1.241146206855774, "34": -0.056754160672426224, "53": -0.061789948493242264, "54": 0.04539545625448227, "60": -0.2088237851858139, "18": 0.1827632188796997, "52": -0.3566802740097046, "63": -0.26303279399871826, "67": -1.7422583103179932, "11": -0.03481035679578781, "61": -0.47450941801071167, "22": -0.004755561705678701, "5": 0.9374107122421265, "47": 0.4380584955215454, "64": -0.3344689905643463, "26": 0.15397031605243683, "62": 0.002640623366460204, "14": 0.020651867613196373, "65": -0.6969351768493652, "66": -0.42671647667884827, "33": -0.10782631486654282, "59": -0.3863673806190491, "51": -0.446737676858902, "32": -0.33848267793655396, "27": 0.7218636274337769, "24": 0.03254391998052597, "25": 0.0048181745223701, "10": 0.8152562379837036, "48": -0.19779177010059357, "17": -0.07415436953306198, "2": -0.21644309163093567, "42": -0.11668942868709564, "8": -0.056689437478780746, "43": 0.15099771320819855, "1": -0.15407098829746246, "28": -0.04153415188193321, "31": 0.32026028633117676, "46": 0.2511098086833954, "38": 0.22751188278198242, "3": 1.1766914129257202, "49": -0.04506158456206322, "12": -0.1777029037475586, "37": -0.4126037061214447, "7": 0.0589374341070652, "41": -0.24988971650600433, "15": -0.17576277256011963, "20": 0.5570974946022034, "39": -0.24441467225551605, "13": 0.056458551436662674, "23": -0.20738159120082855, "19": 0.009766243398189545, "56": 0.07449083775281906, "58": -0.2846088707447052, "30": 0.46824318170547485, "40": -0.1088787391781807, "44": 0.09467531740665436, "55": -0.04346401244401932, "21": 0.10505525767803192, "45": -0.3328135311603546, "50": -0.21345017850399017}}, {"depth": 68, "sx": 1, "sy": 1, "w": {"16": -0.16070662438869476, "6": 0.3775448203086853, "35": 0.23871199786663055, "57": 0.7606520652770996, "0": 0.51638263463974, "29": 0.7746875882148743, "36": 0.23228536546230316, "9": 1.0276169776916504, "4": 0.31110379099845886, "34": 0.28164565563201904, "53": -0.5728329420089722, "54": -0.5982037782669067, "60": 0.14407657086849213, "18": 0.2709899842739105, "52": 0.013565036468207836, "63": 0.42512521147727966, "67": 0.0069376276805996895, "11": -0.29544299840927124, "61": 0.24387112259864807, "22": 0.13791824877262115, "5": -0.08872843533754349, "47": 0.28894859552383423, "64": 0.22276616096496582, "26": -0.26827186346054077, "62": 0.4381064176559448, "14": 0.3047504127025604, "65": -0.001408836804330349, "66": -0.03744584694504738, "33": 0.4816129505634308, "59": -0.019289446994662285, "51": -0.03308182209730148, "32": 0.6988813281059265, "27": 0.1892452985048294, "24": 0.5688101649284363, "25": 0.0770086720585823, "10": 0.4865151345729828, "48": 0.44454795122146606, "17": 1.1648262739181519, "2": 0.33790507912635803, "42": 0.6595646739006042, "8": -0.04706580564379692, "43": 0.5752081871032715, "1": 0.009954855777323246, "28": 0.46170735359191895, "31": 0.4074512720108032, "46": 0.7882752418518066, "38": 0.3315965533256531, "3": 0.5495893955230713, "49": 0.47626984119415283, "12": 0.5647522211074829, "37": -0.13467992842197418, "7": -0.5254859924316406, "41": 0.3214734196662903, "15": 0.16173811256885529, "20": 0.02344937063753605, "39": 0.394792377948761, "13": 0.33644726872444153, "23": 0.06380137801170349, "19": 0.010604934766888618, "56": 0.5507717728614807, "58": 0.5010775923728943, "30": 0.4405551850795746, "40": 0.42321252822875977, "44": 0.3921051621437073, "55": -0.5599961876869202, "21": -0.03830166161060333, "45": 0.5757452249526978, "50": 0.18786875903606415}}, {"depth": 68, "sx": 1, "sy": 1, "w": {"16": -0.10711624473333359, "6": -0.031584858894348145, "35": -0.2713860869407654, "57": 0.03175671398639679, "0": 0.5378909707069397, "29": 0.12051129341125488, "36": -0.1496383398771286, "9": 0.03403088077902794, "4": 0.08232225477695465, "34": -0.5320949554443359, "53": 0.05766404792666435, "54": -0.6299185156822205, "60": -0.0981665775179863, "18": 0.4378461539745331, "52": -0.3350248634815216, "63": -0.0729755237698555, "67": -1.3932136297225952, "11": -0.014796353876590729, "61": 0.015565085224807262, "22": 0.0883978009223938, "5": -0.05021481215953827, "47": -0.8570785522460938, "64": 0.03001100942492485, "26": 0.2784680724143982, "62": -0.4607449173927307, "14": 0.15546606481075287, "65": -0.24893034994602203, "66": 0.03539372980594635, "33": -0.6584912538528442, "59": -0.2993983030319214, "51": -0.7343363761901855, "32": -0.44353753328323364, "27": 0.3682621419429779, "24": 0.16691501438617706, "25": -0.14187586307525635, "10": 0.11697238683700562, "48": -0.5390821099281311, "17": 0.07191644608974457, "2": 0.9264188408851624, "42": -0.5789705514907837, "8": 0.4257771074771881, "43": -0.5085346102714539, "1": -0.05486267805099487, "28": -0.11744429916143417, "31": 1.0150678157806396, "46": -0.4456041157245636, "38": -0.18499056994915009, "3": 0.23747949302196503, "49": -0.34781956672668457, "12": 0.4451156258583069, "37": -0.14844785630702972, "7": 0.2021292746067047, "41": -0.5736063718795776, "15": -0.2441105842590332, "20": 0.8898631930351257, "39": -0.3678014576435089, "13": 0.6972184777259827, "23": -0.1921243965625763, "19": 0.6441366076469421, "56": -0.4064215421676636, "58": -0.07082679867744446, "30": 0.04309571534395218, "40": -0.46634507179260254, "44": 0.04165093973278999, "55": -0.4548460841178894, "21": 0.5407965183258057, "45": -0.3778807818889618, "50": -0.3257889151573181}}, {"depth": 68, "sx": 1, "sy": 1, "w": {"16": -0.25963911414146423, "6": -0.10784098505973816, "35": 0.8477392196655273, "57": 0.25557470321655273, "0": 0.33082476258277893, "29": 0.11225666850805283, "36": 1.0178395509719849, "9": 0.38363590836524963, "4": -0.09983110427856445, "34": 0.3393525183200836, "53": 0.009194960817694664, "54": 0.2615220248699188, "60": -0.21358159184455872, "18": 0.7262517809867859, "52": 0.2865363657474518, "63": -0.005109278950840235, "67": 0.16224688291549683, "11": 0.33702200651168823, "61": -0.2451457381248474, "22": 0.5039334297180176, "5": 0.3275318443775177, "47": -0.898813784122467, "64": -0.10414332151412964, "26": -0.05367572233080864, "62": -0.1753671020269394, "14": -0.17795401811599731, "65": 0.04891291260719299, "66": 0.0013890694826841354, "33": 0.2596583068370819, "59": 0.0347624272108078, "51": 0.10074292123317719, "32": -0.0014742098283022642, "27": -0.017393993213772774, "24": 0.7125698924064636, "25": 0.11343108862638474, "10": -0.21963796019554138, "48": -0.22435082495212555, "17": 0.4282151460647583, "2": 0.27695751190185547, "42": 0.36288514733314514, "8": 0.4189492166042328, "43": 0.14536407589912415, "1": 0.44172361493110657, "28": 0.3942939043045044, "31": 0.7612200379371643, "46": -0.6192765831947327, "38": 1.201959252357483, "3": 0.8174927234649658, "49": 0.08302000164985657, "12": -0.0959801971912384, "37": 0.9302164912223816, "7": -0.2997226417064667, "41": 0.38643139600753784, "15": -0.1776411086320877, "20": 0.36721569299697876, "39": 0.1966087818145752, "13": 0.1328033059835434, "23": 0.4648171663284302, "19": 0.4019423723220825, "56": -0.01687471754848957, "58": 0.2926256060600281, "30": -0.08620257675647736, "40": 0.017669809982180595, "44": 0.2442145049571991, "55": 0.4559975266456604, "21": -0.22261272370815277, "45": 0.24027752876281738, "50": -0.15461532771587372}}, {"depth": 68, "sx": 1, "sy": 1, "w": {"16": 0.505177915096283, "6": 0.04277871549129486, "35": 0.4445403814315796, "57": 0.14703959226608276, "0": -0.14310917258262634, "29": 0.27530035376548767, "36": 0.19162686169147491, "9": 0.7147425413131714, "4": 0.01172759011387825, "34": -0.024101853370666504, "53": -0.9671884775161743, "54": -0.7392610907554626, "60": 0.41096243262290955, "18": 0.04270464554429054, "52": -0.6761640310287476, "63": 0.08874239772558212, "67": -2.196878433227539, "11": 0.06921190768480301, "61": 0.3594231903553009, "22": -0.09845545887947083, "5": 1.1770473718643188, "47": 0.007734974846243858, "64": -0.2903401851654053, "26": -0.09865313768386841, "62": 0.30391955375671387, "14": -0.2491627335548401, "65": -0.41606229543685913, "66": 0.03647901862859726, "33": 0.09312581270933151, "59": 0.42026448249816895, "51": -0.4018253982067108, "32": -0.16561995446681976, "27": -0.26959115266799927, "24": -0.06461969763040543, "25": 0.19787998497486115, "10": -0.19208098948001862, "48": -0.017206966876983643, "17": 0.11738206446170807, "2": 0.03782223165035248, "42": 0.1162542849779129, "8": 0.1330144703388214, "43": 0.16912558674812317, "1": 0.10393217206001282, "28": 0.14348551630973816, "31": 0.5742211937904358, "46": -0.4729541838169098, "38": -0.20448939502239227, "3": 0.02876783162355423, "49": -0.19341985881328583, "12": 0.02349495142698288, "37": 0.27655094861984253, "7": 0.8116787672042847, "41": -0.05686252564191818, "15": -0.09485097229480743, "20": 0.39792773127555847, "39": -0.03127621114253998, "13": 0.2877458333969116, "23": 0.2486206442117691, "19": 0.9146904945373535, "56": -0.180220365524292, "58": 0.07188737392425537, "30": 0.5040944814682007, "40": 0.30986472964286804, "44": 0.005896548740565777, "55": -0.8608645796775818, "21": 0.4163428544998169, "45": 0.0594564713537693, "50": -0.13211661577224731}}, {"depth": 68, "sx": 1, "sy": 1, "w": {"16": 0.11355558037757874, "6": 0.0326150506734848, "35": -0.45898786187171936, "57": -0.7757937908172607, "0": 0.5065970420837402, "29": 0.26097333431243896, "36": -0.26405224204063416, "9": 0.0892394483089447, "4": -0.2325049489736557, "34": -0.5608183145523071, "53": -0.8757075667381287, "54": -0.7537674307823181, "60": -0.31453970074653625, "18": 0.04467027634382248, "52": -0.7906017303466797, "63": -0.6587607860565186, "67": -0.6179181337356567, "11": 0.8895506858825684, "61": -0.47240662574768066, "22": 0.47978851199150085, "5": 0.654951274394989, "47": 0.861650824546814, "64": 0.24273201823234558, "26": -0.17338427901268005, "62": -0.22587153315544128, "14": 0.4274044632911682, "65": 0.411944717168808, "66": -0.2007509469985962, "33": -0.6765228509902954, "59": -0.795259416103363, "51": -1.1743392944335938, "32": -0.9511933922767639, "27": 0.7127472162246704, "24": 0.2708515226840973, "25": 0.6066716909408569, "10": 0.08634046465158463, "48": -1.0385810136795044, "17": 0.4806208908557892, "2": 0.6259657740592957, "42": -0.5435483455657959, "8": -0.1628543734550476, "43": -0.7175498604774475, "1": 0.5605831146240234, "28": -0.2538365125656128, "31": 0.024713914841413498, "46": 0.5058885216712952, "38": 0.14561013877391815, "3": -0.33476555347442627, "49": -0.6648464202880859, "12": 0.5488833785057068, "37": 0.022917870432138443, "7": 0.03779170289635658, "41": -0.492412805557251, "15": 0.16690929234027863, "20": -0.09448010474443436, "39": -0.5576378703117371, "13": 0.4621349573135376, "23": -0.26576802134513855, "19": 0.33767732977867126, "56": -0.742516040802002, "58": -0.8074344992637634, "30": 0.667648434638977, "40": -0.6966821551322937, "44": -0.1636989861726761, "55": -1.046464204788208, "21": -0.25195246934890747, "45": -0.6045251488685608, "50": -0.8627632260322571}}, {"depth": 68, "sx": 1, "sy": 1, "w": {"16": 0.05354873836040497, "6": -0.28714409470558167, "35": 0.9610891342163086, "57": 0.18348002433776855, "0": 0.6328696012496948, "29": -0.0684046670794487, "36": 0.7470192313194275, "9": -0.1899568885564804, "4": 0.47350943088531494, "34": 0.23039108514785767, "53": -0.7035969495773315, "54": -0.49446484446525574, "60": 0.5708514451980591, "18": 0.28361886739730835, "52": -0.6797018051147461, "63": 0.23645466566085815, "67": -0.11275233328342438, "11": -0.1500590741634369, "61": 0.2022082507610321, "22": 0.45471513271331787, "5": -0.009474635124206543, "47": 0.09411249309778214, "64": 0.0821649432182312, "26": 0.47248542308807373, "62": -0.15160121023654938, "14": 0.41981038451194763, "65": -0.04715164750814438, "66": 0.07695477455854416, "33": 0.19288229942321777, "59": 0.5167470574378967, "51": -1.1462832689285278, "32": 0.24772092700004578, "27": -0.038717932999134064, "24": 0.03718550503253937, "25": 0.39378559589385986, "10": 0.8650669455528259, "48": 0.016987718641757965, "17": 0.32127588987350464, "2": 0.33181238174438477, "42": -0.39307546615600586, "8": 0.023216871544718742, "43": -0.2891990542411804, "1": 0.5763565301895142, "28": -0.24390503764152527, "31": 0.5615445375442505, "46": 0.029669951647520065, "38": 0.5417360067367554, "3": 0.4478268623352051, "49": 0.1891251802444458, "12": 0.6630223393440247, "37": 0.9594404697418213, "7": -0.18349595367908478, "41": -0.5668240785598755, "15": 0.030985146760940552, "20": 0.912116289138794, "39": 0.3029334247112274, "13": -0.23717480897903442, "23": 0.34837785363197327, "19": 0.05962935462594032, "56": 0.019576512277126312, "58": 0.3817718029022217, "30": 0.16303549706935883, "40": 0.031449057161808014, "44": -0.391533225774765, "55": -0.0769154280424118, "21": -0.04954154044389725, "45": 0.19927829504013062, "50": -0.172157883644104}}, {"depth": 68, "sx": 1, "sy": 1, "w": {"16": -0.24689394235610962, "6": -0.021321607753634453, "35": 0.23554380238056183, "57": -0.39442771673202515, "0": -0.005987638141959906, "29": 0.07362465560436249, "36": -0.16729971766471863, "9": 0.054237548261880875, "4": -0.002617740537971258, "34": -0.1818048357963562, "53": 0.14697936177253723, "54": 0.13838770985603333, "60": -0.03516405075788498, "18": 0.8082512021064758, "52": 0.2644409239292145, "63": -0.2647140324115753, "67": -1.4266678094863892, "11": -0.011851457878947258, "61": 0.06997973471879959, "22": 0.5479861497879028, "5": -0.03126557916402817, "47": -0.28305619955062866, "64": -0.23265837132930756, "26": 0.34918302297592163, "62": -0.2450748085975647, "14": -0.03133097663521767, "65": -0.9897363185882568, "66": -0.47995203733444214, "33": -0.36594802141189575, "59": -0.11925388127565384, "51": 0.10880274325609207, "32": 0.12559761106967926, "27": -0.038926657289266586, "24": 0.9785752892494202, "25": -0.029393430799245834, "10": 0.2413744181394577, "48": -0.14701445400714874, "17": 0.6922966837882996, "2": 0.4377373456954956, "42": 0.32566437125205994, "8": 0.08968842774629593, "43": -0.11082272976636887, "1": -0.18364165723323822, "28": 0.2518616020679474, "31": 0.8568600416183472, "46": -0.4837503433227539, "38": -0.2603635787963867, "3": 0.5132970809936523, "49": -0.29523327946662903, "12": 0.501428484916687, "37": 0.13394087553024292, "7": 0.7172735929489136, "41": 0.07736310362815857, "15": 0.13436757028102875, "20": -0.2901340425014496, "39": -0.2053448110818863, "13": -0.08885271847248077, "23": 0.08777671307325363, "19": -0.2751877009868622, "56": -0.33353522419929504, "58": -0.21201734244823456, "30": 0.730922520160675, "40": -0.11541324108839035, "44": -0.17616137862205505, "55": 0.38435283303260803, "21": 0.13981875777244568, "45": -0.7193080186843872, "50": 0.09714696556329727}}, {"depth": 68, "sx": 1, "sy": 1, "w": {"16": 0.11813239008188248, "6": -0.10661647468805313, "35": -0.16583770513534546, "57": 0.5472254157066345, "0": -0.008303200826048851, "29": 0.1380523294210434, "36": -0.8196401596069336, "9": 0.6231209635734558, "4": -0.15051555633544922, "34": 0.1117873415350914, "53": 0.6116672158241272, "54": -0.05052471533417702, "60": 0.060041945427656174, "18": -0.10006964206695557, "52": 1.0821694135665894, "63": 0.52046138048172, "67": 0.15932947397232056, "11": 0.12170027941465378, "61": -0.06475232541561127, "22": 0.2579466700553894, "5": 0.23129521310329437, "47": 0.830670952796936, "64": 0.12583312392234802, "26": 0.3210890591144562, "62": -0.1957094371318817, "14": 0.8526845574378967, "65": -0.2736089527606964, "66": 0.051209017634391785, "33": -0.06853822618722916, "59": 0.20828364789485931, "51": 0.04850544035434723, "32": 0.5409284234046936, "27": 0.6488284468650818, "24": 0.5533028244972229, "25": -0.05435100942850113, "10": 0.04576559737324715, "48": 0.25985029339790344, "17": -0.1377779096364975, "2": -0.14903348684310913, "42": 0.31138876080513, "8": -0.17436136305332184, "43": 0.5448573231697083, "1": 0.19052988290786743, "28": 0.05270064249634743, "31": 0.3809279203414917, "46": 0.5677657127380371, "38": -0.6361718773841858, "3": 0.20687374472618103, "49": 0.3144773840904236, "12": 0.10575846582651138, "37": -0.7344223260879517, "7": -0.10995450615882874, "41": 0.3732907176017761, "15": 0.19453352689743042, "20": 0.45810869336128235, "39": 0.2917390763759613, "13": 0.07502498477697372, "23": 0.47099944949150085, "19": 1.3110358715057373, "56": 0.5569894313812256, "58": 0.40978941321372986, "30": 0.06116941571235657, "40": 0.12090287357568741, "44": 0.6985179781913757, "55": 0.8019922971725464, "21": -0.18807226419448853, "45": 0.3431260585784912, "50": -0.028333397582173347}}, {"depth": 68, "sx": 1, "sy": 1, "w": {"16": -0.05173550546169281, "6": -0.15848968923091888, "35": 0.13045288622379303, "57": 0.3431696891784668, "0": 0.12527833878993988, "29": 0.6971440315246582, "36": 0.28688767552375793, "9": -0.14412492513656616, "4": 0.4173271059989929, "34": 0.4846598505973816, "53": 0.4858064651489258, "54": 0.5264626145362854, "60": 0.08006557077169418, "18": 0.148992657661438, "52": 0.5470999479293823, "63": 0.6685575246810913, "67": -0.07939757406711578, "11": 0.18612563610076904, "61": -0.2144576907157898, "22": 0.1427619904279709, "5": 0.34533455967903137, "47": 0.7314770221710205, "64": -0.16022703051567078, "26": 0.44362178444862366, "62": 0.6585216522216797, "14": -0.15154613554477692, "65": -0.14826907217502594, "66": -0.07074155658483505, "33": 0.6478825211524963, "59": 0.29657360911369324, "51": 0.5031123161315918, "32": 1.080585241317749, "27": 0.03132503479719162, "24": -0.11498039215803146, "25": -0.07755519449710846, "10": 0.030076349154114723, "48": 0.8604600429534912, "17": 1.4804425239562988, "2": -0.0825449600815773, "42": 0.4388730823993683, "8": 0.5101149678230286, "43": 0.4252496659755707, "1": 0.2316695600748062, "28": 0.09642580896615982, "31": 0.5863974690437317, "46": 1.101616621017456, "38": 0.18501459062099457, "3": -0.09423278272151947, "49": 0.5936079025268555, "12": 0.6454863548278809, "37": 0.2975797951221466, "7": 0.5536136627197266, "41": 0.6899731159210205, "15": 0.14824193716049194, "20": -0.20308713614940643, "39": 0.5542790293693542, "13": 0.2530490458011627, "23": 0.10841700434684753, "19": 0.7135372161865234, "56": 0.9658230543136597, "58": 0.4296957850456238, "30": 0.025978904217481613, "40": 0.7725789546966553, "44": 0.957852840423584, "55": 0.3493802845478058, "21": 0.2680034935474396, "45": 1.1966488361358643, "50": 0.6350203156471252}}, {"depth": 68, "sx": 1, "sy": 1, "w": {"16": -0.09510233253240585, "6": 1.2184168100357056, "35": 0.4955517053604126, "57": 0.7777280807495117, "0": 0.3023373782634735, "29": 0.39156317710876465, "36": 0.6713299751281738, "9": 0.1764930784702301, "4": 0.23820078372955322, "34": 0.41588878631591797, "53": -0.532685399055481, "54": -0.40745940804481506, "60": 0.4480510652065277, "18": -0.039349813014268875, "52": -0.22229039669036865, "63": 0.26329535245895386, "67": -0.015293335542082787, "11": -0.18255221843719482, "61": -0.07210113853216171, "22": -0.12007030844688416, "5": 0.4031115472316742, "47": 0.7594597935676575, "64": -0.02284306287765503, "26": 0.5551609396934509, "62": 0.40468186140060425, "14": 0.16866907477378845, "65": -0.23574544489383698, "66": -0.223148912191391, "33": 0.4285058379173279, "59": 0.383196085691452, "51": -0.3237355053424835, "32": 0.5359218716621399, "27": 0.12362468242645264, "24": 0.3905947208404541, "25": -0.164492666721344, "10": -0.10709019005298615, "48": 0.4450874924659729, "17": -0.1767137348651886, "2": 1.096877098083496, "42": 0.7592499852180481, "8": 0.4773428440093994, "43": 0.24985584616661072, "1": 0.35760629177093506, "28": -0.11196759343147278, "31": 0.688538670539856, "46": 0.5403125882148743, "38": 0.8551512956619263, "3": 0.1792583465576172, "49": 0.22609937191009521, "12": 0.49864792823791504, "37": 0.557216465473175, "7": 0.601803719997406, "41": 0.7198151350021362, "15": 0.4481963515281677, "20": 0.06269700825214386, "39": 0.5863356590270996, "13": 0.292716920375824, "23": 0.2379116415977478, "19": 0.042845260351896286, "56": 0.7557001113891602, "58": 0.6373291611671448, "30": 0.5565182566642761, "40": 0.494629442691803, "44": 0.3244895339012146, "55": -0.34610632061958313, "21": 0.013206672854721546, "45": 0.34947967529296875, "50": 0.022366352379322052}}, {"depth": 68, "sx": 1, "sy": 1, "w": {"16": 0.2378424108028412, "6": 0.8750936388969421, "35": 0.19327449798583984, "57": 0.3471125066280365, "0": 0.6277983784675598, "29": 0.4761103093624115, "36": 0.2518726587295532, "9": 0.6939375400543213, "4": 0.13648176193237305, "34": -0.07478531450033188, "53": 0.13776423037052155, "54": 0.46132177114486694, "60": 0.4541599750518799, "18": 0.07981482148170471, "52": 0.19917599856853485, "63": 0.299855500459671, "67": -2.8466105461120605, "11": -0.17066888511180878, "61": 0.48551449179649353, "22": -0.026294348761439323, "5": -0.33675616979599, "47": 0.500454306602478, "64": -0.0905018001794815, "26": 0.6875399947166443, "62": 0.2710167467594147, "14": 0.6158512234687805, "65": -0.6719949245452881, "66": 0.5252782702445984, "33": 0.1264386773109436, "59": 0.1512359380722046, "51": 0.025614123791456223, "32": -0.23013240098953247, "27": 0.37494492530822754, "24": 0.2027086615562439, "25": -0.1504219025373459, "10": 0.4588073790073395, "48": 0.11117533594369888, "17": 1.146795392036438, "2": 0.0060449340380728245, "42": 0.22117935121059418, "8": 0.040332578122615814, "43": -0.5528768301010132, "1": 0.06125372275710106, "28": -0.062408868223428726, "31": 0.4128568768501282, "46": 0.395134836435318, "38": -0.1446283757686615, "3": 0.045231401920318604, "49": 0.2217923402786255, "12": -0.5795409083366394, "37": 0.27285584807395935, "7": 0.6947849988937378, "41": 0.06945539265871048, "15": 0.26029396057128906, "20": 0.41108521819114685, "39": 0.22321456670761108, "13": 0.2380584180355072, "23": 0.1833173781633377, "19": 0.0229274183511734, "56": -0.03905905783176422, "58": 0.536354660987854, "30": 0.24450621008872986, "40": 0.21320191025733948, "44": 0.39107903838157654, "55": -0.3750295341014862, "21": 0.38318878412246704, "45": 0.3829040229320526, "50": 0.10654456913471222}}, {"depth": 68, "sx": 1, "sy": 1, "w": {"16": 0.6357752084732056, "6": 0.5938558578491211, "35": -0.25848960876464844, "57": -0.4129193127155304, "0": -0.17627477645874023, "29": 0.25765523314476013, "36": -0.8106510639190674, "9": -0.03372322395443916, "4": 0.09471157938241959, "34": -0.6558184027671814, "53": -0.39679154753685, "54": -0.30890145897865295, "60": -0.34961506724357605, "18": 1.1403491497039795, "52": -0.3569912612438202, "63": -0.31622305512428284, "67": -1.2109277248382568, "11": 0.07061982899904251, "61": -0.4663727879524231, "22": 0.08136530220508575, "5": -0.09765851497650146, "47": 0.08091333508491516, "64": 0.4576879143714905, "26": 0.2164587676525116, "62": -0.1328880935907364, "14": -0.07949013262987137, "65": 0.8128021955490112, "66": -0.11727388203144073, "33": -0.5548173189163208, "59": -0.3699170649051666, "51": -1.0247255563735962, "32": -0.7361763119697571, "27": 0.14062517881393433, "24": -0.028868870809674263, "25": 0.5609846115112305, "10": -0.050324324518442154, "48": -0.9026302099227905, "17": 0.05320708826184273, "2": -0.08743774890899658, "42": -0.4189137816429138, "8": 0.2926706075668335, "43": -0.40631935000419617, "1": 0.8210803866386414, "28": -0.09802121669054031, "31": 0.2969600260257721, "46": -0.2203889936208725, "38": -0.5929107666015625, "3": 0.07312542200088501, "49": -0.7317744493484497, "12": -0.019062580540776253, "37": -0.20064350962638855, "7": -0.1252964287996292, "41": -0.6102454662322998, "15": -0.10648598521947861, "20": 0.17594945430755615, "39": -0.706579327583313, "13": -0.022751489654183388, "23": -0.12973032891750336, "19": -0.11326459795236588, "56": -0.547368586063385, "58": -0.25090867280960083, "30": 0.22183935344219208, "40": -0.6624568700790405, "44": -0.3669484555721283, "55": -0.3831072151660919, "21": -0.07278645783662796, "45": -0.6384068727493286, "50": -1.0004713535308838}}, {"depth": 68, "sx": 1, "sy": 1, "w": {"16": 0.45894670486450195, "6": 0.2599472999572754, "35": -0.6483448147773743, "57": -0.6607556939125061, "0": 0.6508833169937134, "29": -0.18345798552036285, "36": -0.01709873415529728, "9": -0.14526887238025665, "4": -0.160000741481781, "34": -0.49695727229118347, "53": -0.1410880982875824, "54": 0.8690321445465088, "60": -0.7225745320320129, "18": -0.1518837958574295, "52": 0.0356409028172493, "63": -0.8190255165100098, "67": -0.8337900042533875, "11": -0.17323677241802216, "61": -0.8154548406600952, "22": -0.13838835060596466, "5": 0.7155934572219849, "47": 0.5024449229240417, "64": 0.41957515478134155, "26": 0.17033056914806366, "62": -1.0521825551986694, "14": 0.2472587525844574, "65": 0.5307604074478149, "66": -0.24891111254692078, "33": -0.6696434617042542, "59": -0.7757300138473511, "51": -0.8055379986763, "32": -0.8663627505302429, "27": 0.07425668090581894, "24": 0.02038060873746872, "25": 0.12243004888296127, "10": 0.985133707523346, "48": -0.9488505125045776, "17": 1.0031477212905884, "2": 0.42966222763061523, "42": -0.2901127338409424, "8": -0.2741895616054535, "43": 0.130996972322464, "1": 0.5312721133232117, "28": 0.3848325312137604, "31": 0.5148765444755554, "46": 0.27349793910980225, "38": -0.09138774126768112, "3": 0.15732590854167938, "49": -0.7029771208763123, "12": 0.8089001774787903, "37": -0.5371789932250977, "7": 0.1410757303237915, "41": -0.5944058299064636, "15": 0.038469694554805756, "20": 1.1106446981430054, "39": -0.5332240462303162, "13": -0.06010069698095322, "23": 0.08157573640346527, "19": 0.5058804154396057, "56": -0.686051070690155, "58": -0.8810306191444397, "30": -0.1334455907344818, "40": -0.786103367805481, "44": -0.06440205872058868, "55": -0.27187082171440125, "21": 0.7786690592765808, "45": 0.3555888235569, "50": -0.6477845907211304}}, {"depth": 68, "sx": 1, "sy": 1, "w": {"16": 0.10318233072757721, "6": 0.119945228099823, "35": -0.07620514184236526, "57": -0.49284079670906067, "0": 0.8373185992240906, "29": 0.502067506313324, "36": -1.1016602516174316, "9": 0.028500178828835487, "4": 0.1633642017841339, "34": -0.3031557500362396, "53": -0.6543906927108765, "54": -0.4901319146156311, "60": -0.6662034392356873, "18": 0.2859569489955902, "52": -0.5677913427352905, "63": -0.7151415348052979, "67": -0.8548837304115295, "11": 0.11716034263372421, "61": -0.7069505453109741, "22": -0.17535246908664703, "5": -0.2849932610988617, "47": -0.7114002704620361, "64": 0.30605217814445496, "26": 0.03811800852417946, "62": -0.6374732255935669, "14": 0.2892114222049713, "65": 0.25731736421585083, "66": -0.2609781324863434, "33": -0.6456702947616577, "59": -0.4523077607154846, "51": -0.6070739030838013, "32": -0.6204811334609985, "27": 0.5542309880256653, "24": -0.1042790487408638, "25": 0.6848088502883911, "10": -0.12350792437791824, "48": -0.7432437539100647, "17": 0.008060947991907597, "2": 0.22531215846538544, "42": -0.16093048453330994, "8": 1.4456816911697388, "43": 0.217932790517807, "1": -0.3079085648059845, "28": -0.11933335661888123, "31": 0.06685058027505875, "46": -0.41302233934402466, "38": -0.34608981013298035, "3": -0.05950094759464264, "49": -0.5727604031562805, "12": 0.1465296447277069, "37": -0.6619604229927063, "7": 0.6563059091567993, "41": -0.05859076604247093, "15": 0.4816889464855194, "20": 0.4618282914161682, "39": -0.8575002551078796, "13": 0.06197240203619003, "23": 0.09636685997247696, "19": -0.13134238123893738, "56": -0.9196221828460693, "58": -0.46059876680374146, "30": -0.2598477005958557, "40": -0.7935465574264526, "44": -0.12230430543422699, "55": -0.383106529712677, "21": 0.7601206302642822, "45": -0.06582093238830566, "50": -0.7093614339828491}}, {"depth": 68, "sx": 1, "sy": 1, "w": {"16": 0.18343646824359894, "6": -0.09190207719802856, "35": -0.7003040313720703, "57": -0.36116209626197815, "0": -0.09181337058544159, "29": 0.490942120552063, "36": -0.7336733937263489, "9": -0.1350933164358139, "4": -0.10837071388959885, "34": -0.5578360557556152, "53": -0.5072584748268127, "54": 0.12230977416038513, "60": -0.5249650478363037, "18": 0.7473849654197693, "52": -0.4113437235355377, "63": -0.573962926864624, "67": -0.43458083271980286, "11": 0.9175432324409485, "61": -0.570861279964447, "22": -0.067780502140522, "5": -0.004854641389101744, "47": -0.4169071614742279, "64": 0.17072127759456635, "26": -0.04379227012395859, "62": 0.5215357542037964, "14": 0.15592828392982483, "65": 0.18132224678993225, "66": -0.2740153670310974, "33": -0.5753319263458252, "59": -0.6771764755249023, "51": -0.4635271430015564, "32": -0.7588075399398804, "27": -0.11439786851406097, "24": 0.20219264924526215, "25": 0.07301931828260422, "10": -0.07748734205961227, "48": -0.9652138352394104, "17": 0.8921800255775452, "2": 0.2276565283536911, "42": -0.6269020438194275, "8": -0.05383078008890152, "43": -0.5935549139976501, "1": -0.010357395745813847, "28": 0.10974736511707306, "31": 0.017815370112657547, "46": -0.6789562106132507, "38": -0.7795771956443787, "3": 0.3155211806297302, "49": -0.7370020747184753, "12": 0.03983316570520401, "37": -0.9095449447631836, "7": 0.2687917947769165, "41": -0.903458297252655, "15": 0.4845046401023865, "20": 0.6380310654640198, "39": -0.5320000052452087, "13": -0.18135900795459747, "23": 0.2858751714229584, "19": 0.32465609908103943, "56": -0.6665149331092834, "58": -0.4747846722602844, "30": 1.418913722038269, "40": -0.7828470468521118, "44": -0.30547499656677246, "55": -0.016122974455356598, "21": 0.8390505909919739, "45": -0.5222675204277039, "50": -0.8751430511474609}}, {"depth": 68, "sx": 1, "sy": 1, "w": {"16": 0.8646569848060608, "6": -0.1740088015794754, "35": -0.5440465211868286, "57": -0.7421010136604309, "0": -0.22523707151412964, "29": 0.28479909896850586, "36": -0.2091781049966812, "9": 0.6407484412193298, "4": 0.39111676812171936, "34": -1.0202765464782715, "53": -0.42730584740638733, "54": -0.797448456287384, "60": -0.6002168655395508, "18": -0.24270880222320557, "52": -0.18976682424545288, "63": -0.9237778186798096, "67": -0.39078518748283386, "11": 0.5310677289962769, "61": -0.6741083264350891, "22": 0.04595867544412613, "5": -0.07746867835521698, "47": -0.17125391960144043, "64": 0.10814796388149261, "26": 0.2677021622657776, "62": -0.36573076248168945, "14": -0.049273356795310974, "65": 0.06951328366994858, "66": -0.2879868745803833, "33": -0.9191572070121765, "59": -0.4717176556587219, "51": -0.378804087638855, "32": -0.6908212304115295, "27": 0.1096661314368248, "24": -0.05019911751151085, "25": 0.7289419770240784, "10": 0.7663007974624634, "48": -0.5355197787284851, "17": 0.5095846056938171, "2": 0.29945430159568787, "42": -0.547366738319397, "8": -0.00714421970769763, "43": -0.03653192147612572, "1": 0.06789075583219528, "28": -0.02354247495532036, "31": 0.046808525919914246, "46": -0.1205909252166748, "38": 0.31528395414352417, "3": 0.5844918489456177, "49": -0.8406946659088135, "12": 0.796923041343689, "37": -0.2539043426513672, "7": 1.3835177421569824, "41": -0.791726291179657, "15": 0.07501741498708725, "20": -0.13955405354499817, "39": -0.601888120174408, "13": -0.08990510553121567, "23": 0.32150283455848694, "19": -0.13906386494636536, "56": -0.5301457643508911, "58": -0.17563875019550323, "30": 0.20739053189754486, "40": -0.8569091558456421, "44": 0.24650810658931732, "55": -0.18974654376506805, "21": -0.1614840030670166, "45": 0.7637506723403931, "50": -0.5115248560905457}}, {"depth": 68, "sx": 1, "sy": 1, "w": {"16": 1.0358086824417114, "6": 0.12709084153175354, "35": -1.13322913646698, "57": 0.1296103298664093, "0": 0.318892240524292, "29": -0.1143733337521553, "36": -0.8125995993614197, "9": 0.3004354238510132, "4": -0.07045403867959976, "34": -1.096137523651123, "53": -0.1559029370546341, "54": 0.23855550587177277, "60": -0.07453184574842453, "18": 0.12506595253944397, "52": -0.3492435812950134, "63": -0.7401456832885742, "67": -0.8659908771514893, "11": 0.049938980489969254, "61": -0.3335410952568054, "22": -0.09580874443054199, "5": 0.10506577044725418, "47": 0.2287766933441162, "64": 0.24732698500156403, "26": 0.16938941180706024, "62": -0.24504055082798004, "14": 0.24846722185611725, "65": 0.5292092561721802, "66": -0.33494311571121216, "33": -0.8971589803695679, "59": -0.37001708149909973, "51": -0.15808087587356567, "32": -0.9353683590888977, "27": -0.12538856267929077, "24": 1.3463276624679565, "25": 0.06992795318365097, "10": -0.0627618208527565, "48": -0.7032545804977417, "17": 0.42568016052246094, "2": 0.01497956644743681, "42": -0.3829648792743683, "8": 0.661856472492218, "43": -0.06775327771902084, "1": 0.3780107796192169, "28": 0.1367669403553009, "31": 0.16577088832855225, "46": 0.34579184651374817, "38": -0.6975801587104797, "3": 0.39665618538856506, "49": -0.7101081013679504, "12": 0.02731163799762726, "37": -0.8296113014221191, "7": 0.6978673934936523, "41": -0.5744756460189819, "15": -0.059963785111904144, "20": 0.1316036432981491, "39": -0.6675240397453308, "13": -0.030505677685141563, "23": -0.020374592393636703, "19": -0.06822898983955383, "56": -0.6455888748168945, "58": -0.20726121962070465, "30": 0.12478165328502655, "40": -0.6620518565177917, "44": -0.5648924112319946, "55": -0.32451584935188293, "21": -0.1577778309583664, "45": -0.6988157033920288, "50": -0.13903652131557465}}, {"depth": 68, "sx": 1, "sy": 1, "w": {"16": 0.004694290924817324, "6": 0.06502123177051544, "35": -0.5360724925994873, "57": -0.5081148147583008, "0": -0.05204624682664871, "29": 0.052285343408584595, "36": -1.024336338043213, "9": 0.5725422501564026, "4": 0.13941635191440582, "34": -0.8116918206214905, "53": -0.6553198099136353, "54": -0.11065442115068436, "60": -0.3816598057746887, "18": 0.03731045126914978, "52": -0.7255975008010864, "63": -0.6388823986053467, "67": -0.2669529318809509, "11": 0.37660151720046997, "61": -0.6389384269714355, "22": 0.6146542429924011, "5": 0.15083633363246918, "47": 1.0362119674682617, "64": 0.12342549860477448, "26": -0.2149089127779007, "62": -0.8326047658920288, "14": 0.0975271463394165, "65": 0.08969439566135406, "66": -0.30322179198265076, "33": -0.5200222134590149, "59": -0.5138883590698242, "51": -0.7902976274490356, "32": -0.48410847783088684, "27": -0.2404530793428421, "24": -0.04069738835096359, "25": 0.059295546263456345, "10": -0.04168403893709183, "48": -0.4174819588661194, "17": 0.6243267059326172, "2": -0.12811988592147827, "42": 0.5520602464675903, "8": 0.8061259388923645, "43": 0.44286561012268066, "1": 0.5647149682044983, "28": 0.16640393435955048, "31": 0.6284871101379395, "46": 0.32598963379859924, "38": -0.6971902847290039, "3": -0.1855887621641159, "49": -0.5837398767471313, "12": 0.2594403624534607, "37": -0.7190443873405457, "7": -0.16370144486427307, "41": 0.13887761533260345, "15": 0.9948062896728516, "20": 1.408294677734375, "39": 0.06830988079309464, "13": 0.21537788212299347, "23": 0.25511032342910767, "19": -0.20903714001178741, "56": -0.4244621992111206, "58": -0.49287542700767517, "30": -0.1806502491235733, "40": -0.03936830535531044, "44": -0.29922348260879517, "55": 0.36221957206726074, "21": -0.09459532052278519, "45": -0.07162604480981827, "50": -0.31885847449302673}}, {"depth": 68, "sx": 1, "sy": 1, "w": {"16": 0.33588549494743347, "6": -0.05705377086997032, "35": 0.1970352828502655, "57": -0.29559555649757385, "0": 0.6001470685005188, "29": 1.1774412393569946, "36": -0.08514368534088135, "9": -0.08513116836547852, "4": -0.03812220320105553, "34": -0.15553627908229828, "53": -0.2782651484012604, "54": 0.22807729244232178, "60": -0.45860564708709717, "18": -0.04610521346330643, "52": 0.1426074355840683, "63": -0.14102622866630554, "67": -2.430459976196289, "11": 0.8589708209037781, "61": -0.5130383372306824, "22": -0.037506356835365295, "5": 0.4880737066268921, "47": -0.49708420038223267, "64": -0.024243013933300972, "26": 0.46630001068115234, "62": -0.22364003956317902, "14": 0.2910516560077667, "65": -0.7448213696479797, "66": -0.09461610019207001, "33": -0.4792500138282776, "59": -0.7623380422592163, "51": 0.21098095178604126, "32": -0.38165318965911865, "27": -0.1600145548582077, "24": 0.00984631385654211, "25": 0.8330811858177185, "10": 0.7112129926681519, "48": 0.014068820513784885, "17": 0.011944437399506569, "2": -0.18465866148471832, "42": -0.06701932102441788, "8": 0.010503515601158142, "43": 0.041994065046310425, "1": -0.01821441389620304, "28": 0.39225074648857117, "31": 0.14445185661315918, "46": -0.4902496933937073, "38": 0.027060052379965782, "3": 0.4389585852622986, "49": -0.16625361144542694, "12": 0.09074496477842331, "37": 0.268160879611969, "7": -0.0954098254442215, "41": -0.00794725026935339, "15": 0.20272278785705566, "20": -0.1919291913509369, "39": 0.12780924141407013, "13": 0.8172430992126465, "23": -0.287930428981781, "19": 0.2735089659690857, "56": -0.1729579120874405, "58": -0.5351009964942932, "30": 0.02192993462085724, "40": -0.15017223358154297, "44": -0.6174641847610474, "55": 0.09575777500867844, "21": 0.2211371213197708, "45": -0.16487039625644684, "50": -0.14658786356449127}}, {"depth": 68, "sx": 1, "sy": 1, "w": {"16": 0.4698495864868164, "6": -0.3016416132450104, "35": 0.6983387470245361, "57": 0.815671443939209, "0": -0.10397236794233322, "29": 0.26668545603752136, "36": -0.13881516456604004, "9": 0.015597358345985413, "4": -0.019369227811694145, "34": 0.5258876085281372, "53": 0.2455943077802658, "54": 0.3238685429096222, "60": 1.153792381286621, "18": -0.20418190956115723, "52": 0.354178249835968, "63": 0.6002091765403748, "67": 0.001473314012400806, "11": -0.2765105068683624, "61": 1.4332654476165771, "22": 0.23700906336307526, "5": 0.2586519122123718, "47": 0.15982413291931152, "64": 0.1971455067396164, "26": 0.9962559342384338, "62": 1.6691367626190186, "14": -0.1812068074941635, "65": -0.21016140282154083, "66": 0.2690984904766083, "33": 0.37023672461509705, "59": 1.1798738241195679, "51": 0.3374474048614502, "32": 0.23130978643894196, "27": 0.35590797662734985, "24": 0.5757550597190857, "25": 0.5307605266571045, "10": 0.5900965929031372, "48": 0.5787733197212219, "17": -0.02813670039176941, "2": 0.10740745067596436, "42": 1.0751323699951172, "8": 0.7979975342750549, "43": 0.9338959455490112, "1": 0.5607818365097046, "28": 0.23112846910953522, "31": 0.15866230428218842, "46": 0.23776188492774963, "38": 0.08084862679243088, "3": 0.2199956327676773, "49": 0.4895913898944855, "12": -0.1947636753320694, "37": 0.11289390176534653, "7": -0.11621706932783127, "41": 0.869987964630127, "15": 0.37967559695243835, "20": 0.3006066679954529, "39": 0.4515262544155121, "13": 0.1866564303636551, "23": 0.21130883693695068, "19": 0.14013704657554626, "56": 0.6974519491195679, "58": 1.0352894067764282, "30": 0.8454810380935669, "40": 0.6467685699462891, "44": 0.5672567486763, "55": 0.18519559502601624, "21": 0.06438501179218292, "45": 0.3361974060535431, "50": 0.59272700548172}}, {"depth": 68, "sx": 1, "sy": 1, "w": {"16": 0.5078780651092529, "6": -0.09528771042823792, "35": -0.5556434988975525, "57": -0.7626043558120728, "0": 0.3660847544670105, "29": 0.11292831599712372, "36": -0.49442267417907715, "9": 0.9757161736488342, "4": -0.0040698060765862465, "34": -0.7262531518936157, "53": -0.1525183618068695, "54": 0.3527333438396454, "60": -0.3607061207294464, "18": 0.3249789774417877, "52": -0.3485669195652008, "63": -0.4827638268470764, "67": -0.7550091743469238, "11": 0.07110433280467987, "61": -0.8020458221435547, "22": 0.5679838061332703, "5": -0.19617271423339844, "47": 0.6215140223503113, "64": 0.3301677107810974, "26": 0.16972658038139343, "62": -1.0822527408599854, "14": -0.36084896326065063, "65": 0.519109845161438, "66": -0.4531872272491455, "33": -0.5791080594062805, "59": -0.7124576568603516, "51": -0.9070656299591064, "32": -0.7174757122993469, "27": 0.07411490380764008, "24": 0.37102460861206055, "25": 0.2541542053222656, "10": 0.29845157265663147, "48": -0.6423107981681824, "17": 0.08340597152709961, "2": 0.6219509243965149, "42": -0.29574665427207947, "8": -0.18924841284751892, "43": 0.18742211163043976, "1": 0.09832708537578583, "28": 0.17047998309135437, "31": 0.017117412760853767, "46": 0.251574844121933, "38": -0.7205504775047302, "3": 0.35090360045433044, "49": -0.787497341632843, "12": -0.22295928001403809, "37": -0.9297345876693726, "7": -0.047525472939014435, "41": -0.6901760697364807, "15": 0.4589551091194153, "20": -0.18585282564163208, "39": -0.359891802072525, "13": 0.9881040453910828, "23": -0.03604262322187424, "19": 0.3245473802089691, "56": -0.6591584086418152, "58": -0.7825118899345398, "30": 0.1373390257358551, "40": -0.610414981842041, "44": -0.4871159791946411, "55": 0.21043133735656738, "21": 0.9299295544624329, "45": 0.033332888036966324, "50": -0.5498736500740051}}, {"depth": 68, "sx": 1, "sy": 1, "w": {"16": -0.14508606493473053, "6": 0.3828917145729065, "35": -1.072938084602356, "57": -0.7974144816398621, "0": 0.24218498170375824, "29": -0.11066842824220657, "36": -0.8086787462234497, "9": 0.07323894649744034, "4": 0.39668166637420654, "34": -0.7331788539886475, "53": -1.113415002822876, "54": -0.8364753723144531, "60": -0.817740797996521, "18": 0.12687064707279205, "52": -1.040425419807434, "63": -0.8261966109275818, "67": -0.56874680519104, "11": -0.2749844193458557, "61": -0.8578792810440063, "22": 0.12563762068748474, "5": 0.3280693292617798, "47": -0.7899390459060669, "64": 0.38376766443252563, "26": 0.09059909731149673, "62": -0.9362159967422485, "14": 0.2019353210926056, "65": 0.2865622639656067, "66": -0.2661324441432953, "33": -0.7356085181236267, "59": -0.5772870182991028, "51": -1.230364203453064, "32": -0.8910585045814514, "27": -0.10753731429576874, "24": 0.06214234605431557, "25": 0.6730172038078308, "10": 0.45602503418922424, "48": -1.1247535943984985, "17": 0.10517586767673492, "2": 0.21961051225662231, "42": -0.8222218155860901, "8": 0.3175523281097412, "43": -0.756528913974762, "1": 0.7444707155227661, "28": -0.18615756928920746, "31": -0.20614801347255707, "46": -0.42970362305641174, "38": -0.8745874166488647, "3": 0.5273263454437256, "49": -0.9585432410240173, "12": -0.13164082169532776, "37": -1.067495346069336, "7": 0.3053341209888458, "41": -0.7447013258934021, "15": -0.17068783938884735, "20": 0.005923296324908733, "39": -0.7328851819038391, "13": 0.6553544402122498, "23": 0.8677205443382263, "19": 0.05515565723180771, "56": -1.07997727394104, "58": -0.7003218531608582, "30": 0.25121715664863586, "40": -0.8239602446556091, "44": -0.5180903673171997, "55": -0.4001849293708801, "21": 0.47054240107536316, "45": -0.7803405523300171, "50": -1.0848264694213867}}, {"depth": 68, "sx": 1, "sy": 1, "w": {"16": -0.15310701727867126, "6": 0.3951890170574188, "35": -0.37834495306015015, "57": -0.049042005091905594, "0": -0.1412365436553955, "29": 0.18146434426307678, "36": -0.03407508134841919, "9": -0.1385319083929062, "4": 0.1604110151529312, "34": -0.5401902198791504, "53": -0.24160118401050568, "54": 0.37698090076446533, "60": 0.3412966728210449, "18": -0.11366042494773865, "52": -0.33140119910240173, "63": -0.3677884340286255, "67": -1.4285552501678467, "11": 0.03644391521811485, "61": 0.5401054620742798, "22": 0.3823900818824768, "5": 0.4209037721157074, "47": -0.0006720233941450715, "64": 0.11369238793849945, "26": 0.13810160756111145, "62": -0.25843194127082825, "14": 0.3547014594078064, "65": -0.23289944231510162, "66": 0.003279291093349457, "33": -0.33675920963287354, "59": 0.2869502902030945, "51": -0.6408027410507202, "32": -0.29904642701148987, "27": 1.1754741668701172, "24": -0.24001874029636383, "25": -0.3520156741142273, "10": 0.0454598143696785, "48": -0.5107269883155823, "17": 0.014615168794989586, "2": 0.2978062629699707, "42": -0.20503012835979462, "8": 0.03218908980488777, "43": -0.31314200162887573, "1": 0.39241471886634827, "28": -0.16797305643558502, "31": 0.4582984745502472, "46": -0.19108138978481293, "38": -0.4570293724536896, "3": 0.9354801177978516, "49": -0.5285388827323914, "12": 0.13818474113941193, "37": -0.13538308441638947, "7": 0.8387196660041809, "41": -0.4768860936164856, "15": 0.7778317928314209, "20": -0.04777069762349129, "39": -0.08322736620903015, "13": 0.10590478032827377, "23": 0.049958258867263794, "19": 0.20247432589530945, "56": -0.422933429479599, "58": -0.07524154335260391, "30": -0.020118169486522675, "40": -0.36348849534988403, "44": -0.5249948501586914, "55": -0.4383925795555115, "21": 0.00033881483250297606, "45": -0.45566052198410034, "50": -0.3736608028411865}}, {"depth": 68, "sx": 1, "sy": 1, "w": {"16": -0.13947966694831848, "6": -0.03415197134017944, "35": 0.008823422715067863, "57": -0.054283108562231064, "0": 0.4558713734149933, "29": -0.09819052368402481, "36": 0.16640304028987885, "9": 0.06833118945360184, "4": -0.026646297425031662, "34": 0.1693451851606369, "53": 0.1296492964029312, "54": 0.1632615178823471, "60": -0.1563238799571991, "18": 1.3463411331176758, "52": 0.45009279251098633, "63": 0.23057536780834198, "67": 0.18509544432163239, "11": 0.0034711596090346575, "61": -0.05964736267924309, "22": -0.10149461030960083, "5": 0.031951479613780975, "47": 0.8100053071975708, "64": -0.19655080139636993, "26": 0.00616132328286767, "62": 0.4765033721923828, "14": 0.0346967838704586, "65": -0.34850654006004333, "66": 0.13348506391048431, "33": 0.35236749053001404, "59": -0.45604416728019714, "51": 0.4750610888004303, "32": 0.3374968469142914, "27": 0.7215112447738647, "24": -0.0947422906756401, "25": -0.09624684602022171, "10": 0.8664633631706238, "48": 0.1429426074028015, "17": -0.3764354884624481, "2": 0.16746050119400024, "42": 0.4203261733055115, "8": 0.14675384759902954, "43": 1.040305733680725, "1": 0.33176150918006897, "28": 0.6087561249732971, "31": 0.34399649500846863, "46": 0.9768950939178467, "38": -0.2511846125125885, "3": -0.07368115335702896, "49": 0.2042999416589737, "12": 0.04289684444665909, "37": -0.5425726771354675, "7": 0.4707604646682739, "41": 0.44627171754837036, "15": 0.2367618978023529, "20": -0.05826621502637863, "39": 0.394071102142334, "13": -0.04822118207812309, "23": 0.2899566888809204, "19": -0.11028950661420822, "56": 0.3608309328556061, "58": -0.3192526400089264, "30": 0.32055628299713135, "40": 0.4830790162086487, "44": 0.7955847978591919, "55": 0.08616703003644943, "21": 0.017514513805508614, "45": 0.9420404434204102, "50": 0.5773943662643433}}, {"depth": 68, "sx": 1, "sy": 1, "w": {"16": 0.7023354768753052, "6": 0.24068143963813782, "35": -0.24371537566184998, "57": 0.008989543654024601, "0": 0.3835003972053528, "29": 1.257155179977417, "36": -0.4111673831939697, "9": 0.7368369102478027, "4": 0.5835583806037903, "34": -0.4626650810241699, "53": -0.6589842438697815, "54": -0.5706278085708618, "60": 0.266719788312912, "18": 0.23413637280464172, "52": -0.7190873622894287, "63": -0.4979620575904846, "67": -1.840880036354065, "11": 0.05577738210558891, "61": 0.5541821122169495, "22": 0.3301534056663513, "5": 0.1293562352657318, "47": -0.15172980725765228, "64": 0.1595628708600998, "26": -0.08840876072645187, "62": 0.15609107911586761, "14": 0.5401855111122131, "65": -0.07347317785024643, "66": -0.036920931190252304, "33": -0.4629177749156952, "59": 0.34853383898735046, "51": -1.01573646068573, "32": -0.5917142033576965, "27": -0.084318146109581, "24": 0.00027610163670033216, "25": -0.06479821354150772, "10": 0.20813362300395966, "48": -0.584087610244751, "17": 0.03806531801819801, "2": 0.10139016807079315, "42": -0.8144930005073547, "8": 0.6520008444786072, "43": -1.0119582414627075, "1": 0.04072656109929085, "28": 0.5746203660964966, "31": 0.17159470915794373, "46": -0.96842360496521, "38": -0.8607433438301086, "3": 0.43625184893608093, "49": -0.29220008850097656, "12": 0.8739821910858154, "37": -0.3988721966743469, "7": 0.06803060322999954, "41": -0.7412568926811218, "15": -0.019606055691838264, "20": -0.07700356841087341, "39": -0.3861294984817505, "13": -0.2469421923160553, "23": 0.32304757833480835, "19": 0.2946898341178894, "56": -0.4380452632904053, "58": -0.0163495484739542, "30": -0.032080575823783875, "40": -0.4292561411857605, "44": -0.7659085988998413, "55": -0.4323243200778961, "21": 0.2705267667770386, "45": -1.2147871255874634, "50": -0.747046172618866}}, {"depth": 68, "sx": 1, "sy": 1, "w": {"16": -0.11810063570737839, "6": 0.3682325482368469, "35": 0.42687392234802246, "57": 1.016664743423462, "0": -0.05698934197425842, "29": -0.25736820697784424, "36": 0.32433298230171204, "9": 0.1407238394021988, "4": 0.6961706876754761, "34": -0.020325835794210434, "53": -0.0637202188372612, "54": 0.15146657824516296, "60": 0.4029938876628876, "18": 0.5981171727180481, "52": -0.2518646717071533, "63": 0.28598082065582275, "67": -2.5361900329589844, "11": 0.5897440314292908, "61": 0.4088844060897827, "22": 0.8716233968734741, "5": 0.24382629990577698, "47": -0.3157723844051361, "64": 0.04986513406038284, "26": 0.6152774095535278, "62": 0.123038150370121, "14": 0.5033128261566162, "65": -0.4824771285057068, "66": 0.3381376564502716, "33": 0.3065940737724304, "59": 0.08212544023990631, "51": -0.1720258742570877, "32": -0.3054855465888977, "27": -0.39241132140159607, "24": -0.27451878786087036, "25": 0.2723327577114105, "10": 0.040445104241371155, "48": 0.2008817195892334, "17": 0.24117670953273773, "2": -0.005928222555667162, "42": 0.34103161096572876, "8": 0.1396554410457611, "43": 0.6843596696853638, "1": 0.4115639328956604, "28": 0.319692462682724, "31": 0.6220163106918335, "46": 0.3485022485256195, "38": 0.2026853710412979, "3": 0.10235829651355743, "49": 0.432168185710907, "12": 0.5480967164039612, "37": -0.34518933296203613, "7": -0.05200989916920662, "41": 0.33608248829841614, "15": 0.35219717025756836, "20": -0.2605043053627014, "39": 0.20406784117221832, "13": 0.12107538431882858, "23": 0.15852227807044983, "19": 0.5076146125793457, "56": 0.000848802737891674, "58": 0.5329470038414001, "30": 0.41288644075393677, "40": 0.26941198110580444, "44": 0.6352710723876953, "55": -0.31206849217414856, "21": 0.5147745013237, "45": 0.03929142281413078, "50": 0.34530720114707947}}, {"depth": 68, "sx": 1, "sy": 1, "w": {"16": -0.3093828558921814, "6": 1.0104411840438843, "35": -0.1855040043592453, "57": -0.22751834988594055, "0": 0.2838866412639618, "29": 0.8729879260063171, "36": -0.642811119556427, "9": -0.33676764369010925, "4": -0.02341070957481861, "34": -0.32897964119911194, "53": -0.25655826926231384, "54": -0.5125139355659485, "60": -0.1251177340745926, "18": 0.3725852370262146, "52": -0.25242337584495544, "63": -0.2858220040798187, "67": -1.6330015659332275, "11": -0.23412886261940002, "61": 0.010271873325109482, "22": -0.1006617546081543, "5": 0.23095421493053436, "47": 0.45508846640586853, "64": 0.0849568322300911, "26": -0.20159247517585754, "62": 0.1145915538072586, "14": -0.1684805452823639, "65": -0.19792652130126953, "66": -0.09069817513227463, "33": -0.2497052252292633, "59": -0.316741406917572, "51": -0.10900134593248367, "32": -0.20458784699440002, "27": 0.11668571829795837, "24": 0.4418112337589264, "25": 0.41394224762916565, "10": 0.6182103157043457, "48": -0.21269740164279938, "17": -0.260197252035141, "2": 0.03255092352628708, "42": 0.11758437752723694, "8": 0.5839607119560242, "43": 0.11299251019954681, "1": 0.0727078765630722, "28": 0.603376030921936, "31": 0.0026074335910379887, "46": 0.13127876818180084, "38": 0.15662957727909088, "3": 0.5546116232872009, "49": -0.33217498660087585, "12": -0.10188909620046616, "37": -0.12997019290924072, "7": 0.39825281500816345, "41": -0.2837925851345062, "15": 0.5308066606521606, "20": 0.009742282330989838, "39": -0.2810348868370056, "13": 0.23889604210853577, "23": 0.2182828187942505, "19": 0.7725884318351746, "56": -0.3250129818916321, "58": -0.4799831509590149, "30": 0.013381605967879295, "40": -0.12907923758029938, "44": 0.08847679197788239, "55": -0.38391563296318054, "21": 0.1457139551639557, "45": 0.4235503077507019, "50": -0.026935869827866554}}, {"depth": 68, "sx": 1, "sy": 1, "w": {"16": 0.4231571555137634, "6": 0.2807849049568176, "35": 1.4640214443206787, "57": 0.345488578081131, "0": 0.7859030961990356, "29": 0.006753565743565559, "36": 1.5116194486618042, "9": 0.2918824255466461, "4": 0.45842307806015015, "34": 1.2716917991638184, "53": 0.5216800570487976, "54": 0.1758567839860916, "60": -0.09560748189687729, "18": -0.15122981369495392, "52": 0.7739976644515991, "63": 0.4733247756958008, "67": 0.06911256909370422, "11": 0.05782551318407059, "61": -0.14129048585891724, "22": 0.17231450974941254, "5": 0.055999334901571274, "47": 0.16419650614261627, "64": 0.045233406126499176, "26": -0.05614246428012848, "62": -0.055378206074237823, "14": 0.19226954877376556, "65": -0.3327364921569824, "66": 0.12298820912837982, "33": 0.9977965354919434, "59": -0.47857341170310974, "51": 0.4465796649456024, "32": 0.8341748714447021, "27": 0.045579276978969574, "24": -0.1291399449110031, "25": -0.03866172581911087, "10": 0.21668726205825806, "48": 0.33810773491859436, "17": 0.7898182272911072, "2": 0.057112619280815125, "42": 0.5153167247772217, "8": -0.04067389294505119, "43": 0.08886277675628662, "1": 1.0773704051971436, "28": 0.34272482991218567, "31": -0.552353024482727, "46": 0.21373052895069122, "38": 1.6072959899902344, "3": 0.5804886221885681, "49": 0.5469211339950562, "12": -0.01891084387898445, "37": 0.9812251329421997, "7": 0.9406009912490845, "41": 0.44869619607925415, "15": 0.33329734206199646, "20": 0.07965508848428726, "39": 0.516201913356781, "13": 0.20782291889190674, "23": 0.046877823770046234, "19": 0.7081493139266968, "56": 0.4791058599948883, "58": -0.05697838217020035, "30": 0.3962998390197754, "40": 0.5642749071121216, "44": 0.3421551585197449, "55": 0.1935729682445526, "21": 0.00926075130701065, "45": -0.05535989627242088, "50": 0.7745510339736938}}, {"depth": 68, "sx": 1, "sy": 1, "w": {"16": 0.1247451975941658, "6": 0.1616765856742859, "35": 0.12153179943561554, "57": 0.21889768540859222, "0": 0.7737792730331421, "29": 0.1010904610157013, "36": 0.1082104742527008, "9": -0.007781805004924536, "4": -0.1717291921377182, "34": -0.3405764698982239, "53": -0.10750383138656616, "54": -0.20491978526115417, "60": 0.19099418818950653, "18": 0.32506120204925537, "52": 0.0942879170179367, "63": 0.21051527559757233, "67": -3.1068480014801025, "11": -0.019294720143079758, "61": -0.058512426912784576, "22": 1.2278207540512085, "5": 0.14573384821414948, "47": -0.24123288691043854, "64": -0.3356564939022064, "26": -0.2899927794933319, "62": 0.11734750866889954, "14": 0.17055882513523102, "65": -1.0681298971176147, "66": -0.13784624636173248, "33": -0.24947026371955872, "59": 0.4722839891910553, "51": 0.3359301686286926, "32": -0.31742212176322937, "27": 0.8008486032485962, "24": 0.4774232804775238, "25": 0.20843134820461273, "10": 0.006258232519030571, "48": 0.20227232575416565, "17": 0.3046492040157318, "2": 0.09682830423116684, "42": 0.46519213914871216, "8": -0.13720431923866272, "43": 0.48081547021865845, "1": -0.1287832260131836, "28": 0.8278608322143555, "31": -0.2516912519931793, "46": 0.39902767539024353, "38": 0.05439957603812218, "3": 0.7436026334762573, "49": 0.23300336301326752, "12": 0.5185814499855042, "37": -0.25693750381469727, "7": 0.779697060585022, "41": 0.41021689772605896, "15": 0.10072396695613861, "20": 0.10128024965524673, "39": 0.2007872313261032, "13": -0.02853792905807495, "23": 0.15445835888385773, "19": 0.10418375581502914, "56": 0.332378625869751, "58": 0.46105629205703735, "30": 0.14390349388122559, "40": 0.2732343375682831, "44": 0.46400755643844604, "55": -1.0262850522994995, "21": 0.34743326902389526, "45": 0.22206491231918335, "50": -0.26571160554885864}}, {"depth": 68, "sx": 1, "sy": 1, "w": {"16": 0.20435012876987457, "6": -0.12303180992603302, "35": -0.6151291131973267, "57": -0.4497852027416229, "0": 1.0164434909820557, "29": -0.12881048023700714, "36": -0.3509853482246399, "9": 0.5009201169013977, "4": 0.6139045357704163, "34": -0.49824878573417664, "53": -0.9280580282211304, "54": -0.7828860282897949, "60": -0.45692768692970276, "18": 0.6386018991470337, "52": -0.8876367211341858, "63": -0.8566650748252869, "67": -0.6964849233627319, "11": 0.12852896749973297, "61": -0.30020126700401306, "22": 0.26460227370262146, "5": 0.6528501510620117, "47": -0.9917172193527222, "64": 0.36720824241638184, "26": 0.5726681351661682, "62": -0.51551353931427, "14": 0.018324242904782295, "65": 0.4432970881462097, "66": -0.25541940331459045, "33": -0.6454058289527893, "59": -0.20752012729644775, "51": -1.0073353052139282, "32": -0.9032821655273438, "27": 0.5438399910926819, "24": 0.9421926140785217, "25": 0.21362482011318207, "10": 0.6517491340637207, "48": -0.921089231967926, "17": 0.35722997784614563, "2": -0.31644824147224426, "42": -0.7104426026344299, "8": 0.1172543317079544, "43": -1.0032273530960083, "1": 0.5414601564407349, "28": 0.18676461279392242, "31": -0.004248004872351885, "46": -1.3435238599777222, "38": -0.10011765360832214, "3": -0.361017644405365, "49": -0.7618665099143982, "12": -0.0023182358127087355, "37": 0.041469208896160126, "7": 0.33368971943855286, "41": -0.9055163860321045, "15": 0.7810460925102234, "20": -0.16127510368824005, "39": -0.8041716814041138, "13": -0.3258807063102722, "23": 0.46363404393196106, "19": 0.3141809403896332, "56": -0.8542308807373047, "58": -0.42141321301460266, "30": -0.06108987703919411, "40": -0.8964634537696838, "44": -1.0210392475128174, "55": -0.2715088129043579, "21": 0.762422502040863, "45": -1.1710197925567627, "50": -0.9176623225212097}}, {"depth": 68, "sx": 1, "sy": 1, "w": {"16": -0.01786033995449543, "6": 0.8978370428085327, "35": -0.03804701194167137, "57": -0.31078100204467773, "0": -0.0662706047296524, "29": -0.16842712461948395, "36": -0.25525787472724915, "9": 0.8115727305412292, "4": -0.025031235069036484, "34": 0.21391041576862335, "53": -0.07765058428049088, "54": -0.07122410088777542, "60": -0.21828924119472504, "18": -0.19911304116249084, "52": 0.18070615828037262, "63": -0.14637330174446106, "67": -1.8396533727645874, "11": -0.15185093879699707, "61": -0.3015718162059784, "22": 0.2972158193588257, "5": -0.01833231933414936, "47": -0.4732995331287384, "64": -0.4791778028011322, "26": 0.8838638067245483, "62": 0.4397348463535309, "14": 0.014253472909331322, "65": -1.2522656917572021, "66": -0.514593780040741, "33": -0.09180296212434769, "59": -0.141945943236351, "51": 0.08775777369737625, "32": 0.1027989462018013, "27": 0.033378373831510544, "24": 0.4690653085708618, "25": 0.09512099623680115, "10": -0.13190330564975739, "48": 0.0754886046051979, "17": 0.058885347098112106, "2": -0.09022022783756256, "42": -0.2569243609905243, "8": 0.15609200298786163, "43": -0.009823436848819256, "1": 1.052991271018982, "28": -0.06882373988628387, "31": 0.9795233607292175, "46": 0.08064431697130203, "38": 0.22789330780506134, "3": 0.3788585066795349, "49": -0.13599781692028046, "12": 0.9041067957878113, "37": -0.12479235976934433, "7": -0.0891374796628952, "41": -0.019364722073078156, "15": 0.21322587132453918, "20": 0.0043182456865906715, "39": -0.2301403135061264, "13": 0.12938840687274933, "23": 0.0211016945540905, "19": 0.0028133795130997896, "56": 0.12399080395698547, "58": -0.20040874183177948, "30": 0.004485651850700378, "40": -0.018198002129793167, "44": -0.13162147998809814, "55": 0.28740236163139343, "21": 1.12430739402771, "45": -0.14794981479644775, "50": -0.03299686312675476}}, {"depth": 68, "sx": 1, "sy": 1, "w": {"16": -0.11981668323278427, "6": 0.027309074997901917, "35": -0.06966782361268997, "57": 0.35953179001808167, "0": -0.044989775866270065, "29": 0.43270888924598694, "36": -0.29808616638183594, "9": 0.5161387324333191, "4": 0.18425698578357697, "34": 0.3732897639274597, "53": 0.04522327333688736, "54": 0.10912202298641205, "60": 0.12001647800207138, "18": 0.2314392775297165, "52": -0.17552094161510468, "63": 0.024722443893551826, "67": -2.0809192657470703, "11": -0.026689106598496437, "61": -0.16417819261550903, "22": -0.12422867864370346, "5": 0.00430906331166625, "47": 0.20619888603687286, "64": -0.7036629915237427, "26": 0.19840604066848755, "62": -0.16775581240653992, "14": 0.08361593633890152, "65": -1.478959321975708, "66": -0.6495612859725952, "33": 0.33164891600608826, "59": 0.08211656659841537, "51": 0.05026118457317352, "32": 0.286520779132843, "27": 1.1380386352539062, "24": -0.14211061596870422, "25": 0.2059321403503418, "10": -0.012822616845369339, "48": 0.3891095817089081, "17": 1.0026856660842896, "2": 0.18962077796459198, "42": 0.3369258940219879, "8": 0.01702098362147808, "43": 0.26113027334213257, "1": 0.983858585357666, "28": 0.33983635902404785, "31": 0.08587247133255005, "46": -0.0003180268977303058, "38": -0.29142552614212036, "3": 0.17157556116580963, "49": -0.11071324348449707, "12": 0.41890332102775574, "37": -0.123451828956604, "7": -0.13998296856880188, "41": -0.01912304200232029, "15": -0.12609687447547913, "20": -0.2743591368198395, "39": 0.053381145000457764, "13": 0.10746734589338303, "23": 0.20241475105285645, "19": 0.40760743618011475, "56": 0.19724203646183014, "58": -0.2911379635334015, "30": -0.02264239452779293, "40": 0.13541552424430847, "44": 0.1669168323278427, "55": 0.2888708710670471, "21": 0.06031092628836632, "45": 0.17423082888126373, "50": 0.4592161476612091}}, {"depth": 68, "sx": 1, "sy": 1, "w": {"16": 0.012739264406263828, "6": 0.19274045526981354, "35": -0.5647494196891785, "57": -0.6394582986831665, "0": -0.10346665978431702, "29": 0.36991602182388306, "36": -0.4765588939189911, "9": 1.0605945587158203, "4": -0.08641039580106735, "34": -0.7862258553504944, "53": -0.5889565944671631, "54": -0.7040859460830688, "60": -0.6215343475341797, "18": 0.2031223624944687, "52": -0.7680760622024536, "63": -0.6121931672096252, "67": -0.8513118624687195, "11": -0.18677233159542084, "61": -0.47678297758102417, "22": 0.18148364126682281, "5": 1.0789463520050049, "47": -0.5519671440124512, "64": 0.21139469742774963, "26": 0.6725959777832031, "62": -0.9620019197463989, "14": 0.35918620228767395, "65": 0.3276430368423462, "66": -0.24306704103946686, "33": -0.5723539590835571, "59": -1.0225040912628174, "51": -0.7446476221084595, "32": -0.47438204288482666, "27": 0.5505341291427612, "24": -0.07722082734107971, "25": 0.19032709300518036, "10": -0.05851943418383598, "48": -0.876677393913269, "17": 0.03479135036468506, "2": 0.08467061817646027, "42": -0.7100201845169067, "8": 0.07083018869161606, "43": -0.7748323678970337, "1": 0.02792789414525032, "28": 0.7406648993492126, "31": 0.20549345016479492, "46": -0.37736424803733826, "38": 0.37609848380088806, "3": 0.06556165963411331, "49": -0.6445142030715942, "12": -0.06372949481010437, "37": -0.43866410851478577, "7": 0.10152984410524368, "41": -0.6669115424156189, "15": 0.047443583607673645, "20": 0.40938621759414673, "39": -0.45811858773231506, "13": -0.01831033080816269, "23": -0.10543105006217957, "19": 0.0005544926971197128, "56": -0.8062782287597656, "58": -0.9772819876670837, "30": 0.36752161383628845, "40": -0.8528594970703125, "44": -0.4020717442035675, "55": -0.8819946646690369, "21": 0.46584078669548035, "45": -0.4184567928314209, "50": -0.7582527995109558}}, {"depth": 68, "sx": 1, "sy": 1, "w": {"16": 0.16235820949077606, "6": 0.684036374092102, "35": 0.07962755113840103, "57": 0.9295691251754761, "0": 0.10310729593038559, "29": -0.09554104506969452, "36": -0.4146457612514496, "9": -0.061743080615997314, "4": 0.08632883429527283, "34": -0.2572752833366394, "53": -0.3718055486679077, "54": -0.32662060856819153, "60": 1.394866943359375, "18": -0.04262742027640343, "52": -0.5231371521949768, "63": 0.1982172578573227, "67": -0.3035265803337097, "11": 0.5334310531616211, "61": 1.2658034563064575, "22": 0.15915179252624512, "5": -0.13135336339473724, "47": 0.07570894062519073, "64": 0.1591402143239975, "26": 0.1293381005525589, "62": 1.1661301851272583, "14": -0.053396522998809814, "65": 0.04997981712222099, "66": -0.0032302450854331255, "33": 0.17324915528297424, "59": 1.0889995098114014, "51": -0.8315001130104065, "32": 0.3951965272426605, "27": 1.1927515268325806, "24": 0.5789408087730408, "25": 0.6915432214736938, "10": -0.028940193355083466, "48": -0.35342851281166077, "17": 1.0534745454788208, "2": -0.03261389210820198, "42": -0.4869285821914673, "8": -0.021848563104867935, "43": -0.2634251117706299, "1": -0.022958645597100258, "28": 0.19425880908966064, "31": -0.0731092169880867, "46": 0.1700049489736557, "38": -0.6013715863227844, "3": -0.030983278527855873, "49": 0.37427860498428345, "12": -0.04061093553900719, "37": -0.48981595039367676, "7": 0.11459806561470032, "41": -0.5744981169700623, "15": -0.04004371911287308, "20": 0.4216126799583435, "39": 0.44686925411224365, "13": 0.5760465264320374, "23": 0.09591209888458252, "19": 0.07907912880182266, "56": 0.22086834907531738, "58": 1.1787054538726807, "30": 0.011484898626804352, "40": 0.146849125623703, "44": -0.1334836333990097, "55": 0.40550902485847473, "21": 0.7008935213088989, "45": -0.007139280438423157, "50": -0.29271650314331055}}, {"depth": 68, "sx": 1, "sy": 1, "w": {"16": 0.807131290435791, "6": 0.185294970870018, "35": -0.30582359433174133, "57": -0.8725982904434204, "0": -0.249766007065773, "29": 0.3056688904762268, "36": 0.2745607793331146, "9": 0.16146819293498993, "4": 0.4358347952365875, "34": -0.24236537516117096, "53": -0.5900205373764038, "54": -0.6624868512153625, "60": -0.6121134757995605, "18": -0.04818272963166237, "52": -0.3826371133327484, "63": -0.21831992268562317, "67": -0.37074556946754456, "11": -0.051134854555130005, "61": -0.2067839801311493, "22": 0.5461921095848083, "5": -0.3108486831188202, "47": -0.1680019348859787, "64": 0.2603141963481903, "26": -0.1267385184764862, "62": 0.344107449054718, "14": 0.4947478771209717, "65": 0.1526108980178833, "66": -0.08185294270515442, "33": -0.5368810296058655, "59": -0.6586915850639343, "51": -0.5993098020553589, "32": -0.18243801593780518, "27": 0.6257049441337585, "24": -0.01230037584900856, "25": 0.02701757289469242, "10": -0.20408521592617035, "48": -0.019740736111998558, "17": 0.7233631014823914, "2": 0.09764279425144196, "42": -0.4550568461418152, "8": -0.05882611870765686, "43": -0.18805605173110962, "1": 0.5887085795402527, "28": 0.8962602615356445, "31": 1.109194278717041, "46": -0.33407390117645264, "38": 0.15505746006965637, "3": -0.04979344829916954, "49": -0.3412272036075592, "12": -0.14968819916248322, "37": 0.1373111605644226, "7": 0.1323460042476654, "41": 0.0009744748822413385, "15": -0.14966905117034912, "20": 0.37851306796073914, "39": -0.3350241184234619, "13": 0.1575627326965332, "23": 0.5189628601074219, "19": 0.13571475446224213, "56": -0.10854103416204453, "58": -0.5559832453727722, "30": 0.19822624325752258, "40": -0.4385729134082794, "44": -0.500911295413971, "55": 0.14872442185878754, "21": 0.2778264284133911, "45": -0.4779717028141022, "50": -0.09195968508720398}}, {"depth": 68, "sx": 1, "sy": 1, "w": {"16": 0.04094776138663292, "6": 0.055957943201065063, "35": 0.10607485473155975, "57": 0.1637551188468933, "0": 0.31374019384384155, "29": -0.13472668826580048, "36": -0.40208789706230164, "9": 0.8137162923812866, "4": -0.050168197602033615, "34": 0.08532927185297012, "53": 0.08910807967185974, "54": 0.5250974297523499, "60": 0.00048809932195581496, "18": 0.1586703509092331, "52": -0.08093312382698059, "63": -0.18565280735492706, "67": -2.8383729457855225, "11": 0.21960556507110596, "61": 0.20641615986824036, "22": -0.04417627677321434, "5": 0.037084225565195084, "47": -0.14230936765670776, "64": 0.02043662779033184, "26": -0.37064483761787415, "62": 0.30570340156555176, "14": 0.009326780214905739, "65": -0.8600527048110962, "66": 0.5343266725540161, "33": 0.06710970401763916, "59": 0.0020546033047139645, "51": 0.15500840544700623, "32": -0.07363515347242355, "27": 0.507638156414032, "24": 0.06475719809532166, "25": 0.5087977051734924, "10": 0.17053577303886414, "48": 0.050861965864896774, "17": 0.014958757907152176, "2": -0.001805025152862072, "42": -0.38006842136383057, "8": 0.2925819754600525, "43": -0.6188747882843018, "1": 0.46681368350982666, "28": -0.2636663615703583, "31": 0.036864932626485825, "46": -0.2902919352054596, "38": 0.1378544121980667, "3": 0.8449941873550415, "49": 0.27032533288002014, "12": 0.18457013368606567, "37": 0.4426403343677521, "7": -0.011851251125335693, "41": -0.24460509419441223, "15": 0.35238856077194214, "20": 0.7471898198127747, "39": 0.022839846089482307, "13": 0.2622743844985962, "23": 0.2596748471260071, "19": 0.4576503336429596, "56": 0.05416350066661835, "58": -0.1903603971004486, "30": 0.464529424905777, "40": 0.08382014185190201, "44": -0.09149747341871262, "55": -0.06367964297533035, "21": 0.05950307473540306, "45": -0.5649579763412476, "50": 0.08069396018981934}}, {"depth": 68, "sx": 1, "sy": 1, "w": {"16": 0.13553975522518158, "6": 0.2755984663963318, "35": -0.5333876013755798, "57": -0.28666970133781433, "0": 0.023209547623991966, "29": 0.119472935795784, "36": -0.41535863280296326, "9": -0.1430039405822754, "4": 1.1409944295883179, "34": -0.03861645609140396, "53": -0.2761329412460327, "54": -0.31702423095703125, "60": -0.2196475714445114, "18": 0.09863290935754776, "52": -0.265278697013855, "63": -0.3689785897731781, "67": -1.2554558515548706, "11": 0.27301496267318726, "61": -0.15388505160808563, "22": -0.1437598466873169, "5": 0.511644721031189, "47": 0.19739657640457153, "64": 0.23405469954013824, "26": -0.1381145864725113, "62": -0.38861319422721863, "14": 0.5344646573066711, "65": -0.6278040409088135, "66": 0.39591941237449646, "33": -0.5784357190132141, "59": -0.2986013889312744, "51": -0.5045779347419739, "32": -0.5570878386497498, "27": -0.04432600736618042, "24": 0.8604720830917358, "25": -0.1120898425579071, "10": -0.3116353154182434, "48": -0.4068974554538727, "17": 0.13184918463230133, "2": -0.2061290144920349, "42": -0.4405372440814972, "8": 0.3857518434524536, "43": -0.319551944732666, "1": 0.8519951701164246, "28": 0.42833417654037476, "31": 0.022047368809580803, "46": 0.05276541784405708, "38": -0.02334534004330635, "3": -0.22288961708545685, "49": -0.2511599063873291, "12": 0.4940217137336731, "37": 0.05318437144160271, "7": 0.1248401552438736, "41": -0.26340723037719727, "15": 0.08073972910642624, "20": 0.3114255368709564, "39": -0.2748216986656189, "13": 0.9989156723022461, "23": -0.08354286849498749, "19": -0.02503141015768051, "56": -0.463870644569397, "58": -0.5133529901504517, "30": 0.7898269891738892, "40": -0.5478875637054443, "44": 0.03977903723716736, "55": -0.7624779939651489, "21": 0.4576660096645355, "45": -0.25457462668418884, "50": -0.3937821388244629}}, {"depth": 68, "sx": 1, "sy": 1, "w": {"16": 0.16851231455802917, "6": -0.1134580746293068, "35": -0.18162399530410767, "57": 0.08637803047895432, "0": 0.05616474524140358, "29": 0.47565776109695435, "36": -0.27503424882888794, "9": 0.14916765689849854, "4": -0.010977426543831825, "34": 0.2543395459651947, "53": -0.8470621109008789, "54": -1.024736762046814, "60": -0.07515539228916168, "18": 0.4049740433692932, "52": -0.6453614234924316, "63": -0.20785219967365265, "67": -2.263495683670044, "11": 0.4766821265220642, "61": -0.17225006222724915, "22": -0.27259427309036255, "5": -0.15310430526733398, "47": -0.14477552473545074, "64": -0.12469764053821564, "26": 0.01522890105843544, "62": -0.07074150443077087, "14": 1.013433575630188, "65": -0.8585234880447388, "66": 0.08587504178285599, "33": 0.1261221319437027, "59": 0.2533026933670044, "51": -0.551024317741394, "32": 0.38279762864112854, "27": 0.07373416423797607, "24": -0.07134895026683807, "25": 0.2808542251586914, "10": 0.2522219121456146, "48": -0.02026923932135105, "17": -0.0020594210363924503, "2": 0.6001896858215332, "42": -0.22127529978752136, "8": 0.7987663149833679, "43": -0.4654225707054138, "1": 0.5716046690940857, "28": -0.08566702902317047, "31": 1.023094892501831, "46": -0.11293800175189972, "38": 0.3428252637386322, "3": 0.48172619938850403, "49": 0.09787687659263611, "12": -0.2136358618736267, "37": 0.2761836051940918, "7": 0.33651241660118103, "41": -0.0028963610529899597, "15": 0.09181766211986542, "20": -0.1941736340522766, "39": -0.05301433429121971, "13": -0.1468929648399353, "23": -0.03484780713915825, "19": 0.681100606918335, "56": -0.1251448690891266, "58": -0.2191062569618225, "30": 0.37666356563568115, "40": 0.03674200177192688, "44": -0.20405031740665436, "55": -0.9924699068069458, "21": 0.8642879128456116, "45": -0.20231276750564575, "50": -0.15729112923145294}}, {"depth": 68, "sx": 1, "sy": 1, "w": {"16": 0.525701642036438, "6": 0.30619826912879944, "35": 0.07038839161396027, "57": 0.169178307056427, "0": 0.8930937647819519, "29": 0.07758685946464539, "36": -0.6883410215377808, "9": -0.07569608092308044, "4": 0.16001692414283752, "34": -0.1476014107465744, "53": -0.3986261487007141, "54": -0.2486090362071991, "60": 0.08214427530765533, "18": -0.21540647745132446, "52": -0.44606953859329224, "63": -0.09946930408477783, "67": -1.8511735200881958, "11": 0.4975290894508362, "61": 0.1374904215335846, "22": 0.0967278778553009, "5": 0.4125276207923889, "47": 0.42643120884895325, "64": -0.2206999510526657, "26": 0.4911600947380066, "62": -0.698836624622345, "14": -0.45218437910079956, "65": -0.734634518623352, "66": 0.2744923532009125, "33": -0.08991970121860504, "59": -0.0028431585524231195, "51": -0.702028214931488, "32": 0.31362682580947876, "27": 0.3507257103919983, "24": -0.08202825486660004, "25": -0.11148501187562943, "10": -0.055053915828466415, "48": -0.2136666476726532, "17": 0.6489869356155396, "2": 0.9012430906295776, "42": -0.06737075001001358, "8": 0.6246585845947266, "43": 0.1640014350414276, "1": 0.5331906676292419, "28": 0.6648352742195129, "31": 1.2873125076293945, "46": 0.3276362717151642, "38": -0.3653840720653534, "3": 0.15077097713947296, "49": -0.005161314271390438, "12": -0.22452996671199799, "37": -0.5356491804122925, "7": -0.06973142176866531, "41": -0.3336297273635864, "15": 0.12857216596603394, "20": -0.24206575751304626, "39": 0.0666908472776413, "13": -0.30909234285354614, "23": 0.12321341037750244, "19": 0.6385233998298645, "56": -0.04598718509078026, "58": -0.10951560735702515, "30": 0.3751431405544281, "40": 0.01759437657892704, "44": 0.00030804984271526337, "55": 0.27309954166412354, "21": -0.125144362449646, "45": 0.15084697306156158, "50": -0.4470515549182892}}, {"depth": 68, "sx": 1, "sy": 1, "w": {"16": 0.12782710790634155, "6": -0.18916375935077667, "35": 0.08039876818656921, "57": 0.07834897935390472, "0": -0.0499088279902935, "29": 0.35337013006210327, "36": -0.5450071096420288, "9": 0.1246313750743866, "4": 0.20027315616607666, "34": 0.005066513549536467, "53": 0.03676747903227806, "54": 0.3222866952419281, "60": -0.2546592652797699, "18": -0.11350003629922867, "52": 0.06608052551746368, "63": -0.06423021107912064, "67": -1.822262167930603, "11": -0.35935091972351074, "61": -0.5382656455039978, "22": 0.6143873333930969, "5": 0.04389669746160507, "47": -0.3120841979980469, "64": -0.13552716374397278, "26": 0.06621510535478592, "62": -0.767218828201294, "14": -0.12458974123001099, "65": -0.8326284289360046, "66": 0.10929170250892639, "33": -0.14677119255065918, "59": -0.5426385402679443, "51": -0.6520546078681946, "32": -0.17635203897953033, "27": 0.05096796154975891, "24": -0.139718160033226, "25": 0.5890165567398071, "10": -0.061065301299095154, "48": -0.07272712886333466, "17": -0.06774447858333588, "2": 0.7781003713607788, "42": -0.5252249240875244, "8": 0.21513767540454865, "43": -0.43003547191619873, "1": -0.062252357602119446, "28": 0.5760160088539124, "31": 0.008196128532290459, "46": 0.06671196222305298, "38": 0.4048079550266266, "3": -0.149006187915802, "49": -0.0975230261683464, "12": 0.732189953327179, "37": -0.09077302366495132, "7": 0.8588114380836487, "41": -0.2752009928226471, "15": 0.7834371328353882, "20": 0.49068546295166016, "39": -0.5324398279190063, "13": 0.11215535551309586, "23": 0.23057468235492706, "19": 0.05766122788190842, "56": -0.14280222356319427, "58": -0.5322173237800598, "30": 0.41884851455688477, "40": -0.2183118611574173, "44": 0.3292548656463623, "55": 0.026632335036993027, "21": -0.10002762824296951, "45": -0.6773884892463684, "50": 0.11236366629600525}}, {"depth": 68, "sx": 1, "sy": 1, "w": {"16": 0.01244762260466814, "6": -0.2721870541572571, "35": 0.17771011590957642, "57": -0.20336772501468658, "0": 0.8247261047363281, "29": 0.49376222491264343, "36": 0.30892398953437805, "9": 0.08317119628190994, "4": 0.3276967406272888, "34": 0.15768322348594666, "53": -0.518550455570221, "54": -0.49360790848731995, "60": -0.16606418788433075, "18": 0.005808090791106224, "52": -0.24185830354690552, "63": -0.6328586339950562, "67": -0.4632894992828369, "11": 0.5577855110168457, "61": 0.28020530939102173, "22": 0.3042401969432831, "5": -0.1588076800107956, "47": 0.6391643285751343, "64": 0.24542325735092163, "26": 0.8565568327903748, "62": 0.39068880677223206, "14": 0.3562711477279663, "65": 0.11959674209356308, "66": -0.11054713279008865, "33": 0.38331642746925354, "59": -0.10643424838781357, "51": -0.07651780545711517, "32": -0.009954134002327919, "27": 0.330840528011322, "24": 0.2503845691680908, "25": -0.3177633285522461, "10": -0.11623214185237885, "48": -0.548444390296936, "17": 0.13120858371257782, "2": -0.15332141518592834, "42": -0.41677525639533997, "8": -0.13600869476795197, "43": -0.20967918634414673, "1": 0.04791455715894699, "28": 0.07944973558187485, "31": 1.1041035652160645, "46": -0.2106359899044037, "38": 0.2627980709075928, "3": 0.06057369336485863, "49": -0.4972468316555023, "12": -0.15191903710365295, "37": -0.3445036709308624, "7": 0.9917412400245667, "41": -0.8014490604400635, "15": -0.16548915207386017, "20": 0.14547176659107208, "39": -0.36669954657554626, "13": 0.8298931121826172, "23": 0.24978308379650116, "19": -0.07450336217880249, "56": -0.18240922689437866, "58": -0.3513825237751007, "30": 0.2787032127380371, "40": -0.16864384710788727, "44": -0.5258641839027405, "55": -0.4532184898853302, "21": -0.19668860733509064, "45": -0.6217058300971985, "50": -0.4254581928253174}}, {"depth": 68, "sx": 1, "sy": 1, "w": {"16": 0.10011681914329529, "6": -0.051905274391174316, "35": 0.5280993580818176, "57": 0.5437796115875244, "0": -0.22064822912216187, "29": 0.30612558126449585, "36": 0.6465235948562622, "9": 0.32233428955078125, "4": 0.8134396076202393, "34": 0.09990732371807098, "53": 0.26626893877983093, "54": 1.0277493000030518, "60": 0.1179589182138443, "18": 0.2039874643087387, "52": 0.4080776274204254, "63": 0.45356354117393494, "67": -0.0129848076030612, "11": 0.8386136293411255, "61": 0.018994029611349106, "22": 0.49593502283096313, "5": 0.07893398404121399, "47": 0.4395580291748047, "64": 0.2315933108329773, "26": -0.04692342132329941, "62": -0.4495121240615845, "14": 0.01657623052597046, "65": -0.25826823711395264, "66": 0.018452253192663193, "33": 0.16688308119773865, "59": -0.09559573978185654, "51": 0.2949775457382202, "32": 0.35635146498680115, "27": 0.4394952356815338, "24": 0.5311524868011475, "25": -0.21816088259220123, "10": 0.6800990104675293, "48": 0.5241243839263916, "17": -0.4357960820198059, "2": 0.9358663558959961, "42": 0.8165245652198792, "8": 0.31903719902038574, "43": 0.8572381138801575, "1": 0.6723960041999817, "28": 0.23819711804389954, "31": -0.45513179898262024, "46": 0.7477933764457703, "38": 0.566831111907959, "3": -0.13609831035137177, "49": 0.3753454089164734, "12": 0.06827665120363235, "37": 0.4059595465660095, "7": 0.5216562151908875, "41": 0.1272851973772049, "15": -0.048751622438430786, "20": 0.28138718008995056, "39": 0.3184417486190796, "13": 0.05505887791514397, "23": 0.5281192064285278, "19": 0.36895105242729187, "56": 0.52906733751297, "58": 0.09824582189321518, "30": -0.0028149555437266827, "40": 0.46601736545562744, "44": 0.7904781699180603, "55": 1.066551685333252, "21": 0.8410146832466125, "45": 0.8764737248420715, "50": 0.47029027342796326}}, {"depth": 68, "sx": 1, "sy": 1, "w": {"16": 0.2309698909521103, "6": -0.2069055438041687, "35": -0.506090521812439, "57": -0.6320866346359253, "0": 0.08090139180421829, "29": -0.16561585664749146, "36": -0.7022125720977783, "9": -0.08486895263195038, "4": 0.2885500490665436, "34": -0.30448397994041443, "53": -0.4267808198928833, "54": -0.0753563717007637, "60": -0.5206686854362488, "18": 0.043919533491134644, "52": -0.1046447902917862, "63": -0.4284176826477051, "67": -2.384988307952881, "11": 0.06615521758794785, "61": -0.3517696261405945, "22": 1.42051100730896, "5": 0.9270251989364624, "47": -0.43371981382369995, "64": -0.02922259457409382, "26": -0.02744496986269951, "62": -0.8890987634658813, "14": 0.14092525839805603, "65": -0.5061774849891663, "66": -0.15411703288555145, "33": -0.23924687504768372, "59": -1.0174765586853027, "51": -0.17471636831760406, "32": 0.2301884889602661, "27": 0.18726368248462677, "24": 0.08276442438364029, "25": 0.15746818482875824, "10": -0.03532440587878227, "48": -0.3035604655742645, "17": 0.0933714285492897, "2": -0.04220551252365112, "42": -0.6366339325904846, "8": 1.0178135633468628, "43": -0.7020297646522522, "1": -0.13800354301929474, "28": -0.08695990592241287, "31": 0.33654099702835083, "46": 0.09478208422660828, "38": -0.40537428855895996, "3": 0.20152835547924042, "49": -0.4351312518119812, "12": -0.19300201535224915, "37": 0.07342862337827682, "7": 0.05166207253932953, "41": -0.7388178110122681, "15": 0.17534610629081726, "20": -0.1396803855895996, "39": -0.5195320248603821, "13": 0.08309398591518402, "23": 0.03998009115457535, "19": 0.10632532089948654, "56": -0.431966096162796, "58": -0.4648579955101013, "30": -0.09754230082035065, "40": -0.5725535750389099, "44": -0.35800179839134216, "55": -0.18606987595558167, "21": 0.19753146171569824, "45": -0.2689330577850342, "50": -0.19040803611278534}}, {"depth": 68, "sx": 1, "sy": 1, "w": {"16": 1.0269408226013184, "6": 0.27156808972358704, "35": 0.5394421219825745, "57": 0.7945343255996704, "0": 0.562952995300293, "29": 0.28358811140060425, "36": -0.29066914319992065, "9": 0.02392401173710823, "4": -0.26088207960128784, "34": 0.5292547941207886, "53": 0.5774983763694763, "54": 1.0433443784713745, "60": 0.7961812615394592, "18": 0.7623825073242188, "52": 0.8403342366218567, "63": 0.24082684516906738, "67": 0.1967306286096573, "11": -0.16573584079742432, "61": 0.5410618185997009, "22": 0.1634397953748703, "5": 0.5395328402519226, "47": -0.03513715788722038, "64": 0.036974504590034485, "26": -0.15791262686252594, "62": 0.27712371945381165, "14": 0.20711581408977509, "65": -0.36984995007514954, "66": 0.07726429402828217, "33": 0.7196868062019348, "59": 0.19105172157287598, "51": 1.0884902477264404, "32": 0.6027490496635437, "27": 0.3994238078594208, "24": 0.284024178981781, "25": 0.7075624465942383, "10": -0.10030034929513931, "48": 0.6181129813194275, "17": -0.3137035667896271, "2": -0.18473483622074127, "42": 0.2661105692386627, "8": -0.22917449474334717, "43": -0.6075344681739807, "1": 0.48581990599632263, "28": 0.3056158125400543, "31": 1.2617443799972534, "46": 0.0797961875796318, "38": 0.18623749911785126, "3": -0.1157059371471405, "49": 0.25903594493865967, "12": 0.8970016837120056, "37": -0.01212964579463005, "7": 0.5012934803962708, "41": -0.2035541832447052, "15": 0.05018811672925949, "20": 0.01008149329572916, "39": 0.65934818983078, "13": 0.39103391766548157, "23": 0.5174129009246826, "19": -0.02102304808795452, "56": 0.5055347681045532, "58": 0.6877725720405579, "30": 0.007009637542068958, "40": 0.396604061126709, "44": -0.2854274809360504, "55": 0.8970004320144653, "21": 0.4249948263168335, "45": -0.009412470273673534, "50": 0.9924489259719849}}, {"depth": 68, "sx": 1, "sy": 1, "w": {"16": -0.2476710081100464, "6": 0.3939118981361389, "35": 0.0957786962389946, "57": 0.2708154022693634, "0": 0.18715634942054749, "29": 1.0499231815338135, "36": 0.03217392787337303, "9": 0.09897319227457047, "4": -0.2536638379096985, "34": 0.19817912578582764, "53": 0.2000342756509781, "54": 0.2656190097332001, "60": 0.09424182027578354, "18": 0.2419576197862625, "52": 0.10391277074813843, "63": -0.051681410521268845, "67": -2.0302467346191406, "11": 0.6211724877357483, "61": -0.044317904859781265, "22": 0.15264533460140228, "5": 0.19324278831481934, "47": 0.2793150544166565, "64": -0.16014930605888367, "26": 0.6581822037696838, "62": -0.9741688966751099, "14": 0.06362573057413101, "65": -0.8619734048843384, "66": -0.34191933274269104, "33": -0.16015863418579102, "59": 0.06429684907197952, "51": -0.11131470650434494, "32": 0.19528451561927795, "27": -0.14946278929710388, "24": 0.01983751729130745, "25": 0.2024015188217163, "10": -0.060820020735263824, "48": 0.004560878966003656, "17": -0.01451154239475727, "2": 0.052947837859392166, "42": -0.030736222863197327, "8": 0.024644125252962112, "43": 0.06224461644887924, "1": 0.09361685067415237, "28": -0.08042815327644348, "31": 0.06862887740135193, "46": -1.1819145679473877, "38": 0.021900266408920288, "3": -0.14717629551887512, "49": 0.15564660727977753, "12": 0.3143497109413147, "37": 0.27803489565849304, "7": 0.08195450901985168, "41": -0.0666472539305687, "15": -0.19257637858390808, "20": 0.4149455726146698, "39": -0.13981297612190247, "13": 0.04645157605409622, "23": 1.4444297552108765, "19": 0.10047279298305511, "56": -0.15829108655452728, "58": 0.3432621657848358, "30": 0.09638331830501556, "40": -0.013147166930139065, "44": -0.1421726942062378, "55": -0.4316183626651764, "21": -0.025304017588496208, "45": -0.967637836933136, "50": 0.11704421788454056}}, {"depth": 68, "sx": 1, "sy": 1, "w": {"16": 0.7129642367362976, "6": 0.7413027286529541, "35": -0.6064745187759399, "57": -0.8719068169593811, "0": 0.10201148688793182, "29": -0.21981926262378693, "36": -1.0365930795669556, "9": -0.13892138004302979, "4": -0.12375657260417938, "34": -0.8033095598220825, "53": -0.9629822373390198, "54": -0.9067966341972351, "60": -1.0585740804672241, "18": -0.028907116502523422, "52": -0.7626112103462219, "63": -0.7852864861488342, "67": -0.6286637187004089, "11": 0.06881343573331833, "61": -1.1279906034469604, "22": 0.6657295823097229, "5": -0.26580432057380676, "47": 0.001205445034429431, "64": 0.2517874538898468, "26": 0.27722638845443726, "62": -0.8550340533256531, "14": 0.5738580226898193, "65": 0.4784572720527649, "66": -0.4157599210739136, "33": -0.7787169814109802, "59": -1.0427314043045044, "51": -0.5087409615516663, "32": -0.8316288590431213, "27": 0.21658562123775482, "24": 0.03733617439866066, "25": 0.18966108560562134, "10": 0.8223820924758911, "48": -0.8641220927238464, "17": 0.03996655344963074, "2": -0.10736983269453049, "42": -0.5975309014320374, "8": 0.9249600768089294, "43": -0.5167734026908875, "1": -0.20427896082401276, "28": 0.489761620759964, "31": 0.13746069371700287, "46": -0.5629167556762695, "38": -0.6654645800590515, "3": -0.15807011723518372, "49": -0.6484732031822205, "12": 0.391032338142395, "37": -0.7831592559814453, "7": 0.19250504672527313, "41": -0.7457292675971985, "15": 0.007812184281647205, "20": -0.011665304191410542, "39": -0.6758923530578613, "13": 0.5055885314941406, "23": 0.2574743628501892, "19": 0.5586135983467102, "56": -1.0769277811050415, "58": -0.8519433736801147, "30": 0.8166942596435547, "40": -0.6613394618034363, "44": -0.4624845087528229, "55": -0.6331808567047119, "21": -0.09942454099655151, "45": -0.7181465029716492, "50": -0.8022628426551819}}, {"depth": 68, "sx": 1, "sy": 1, "w": {"16": 0.731883704662323, "6": 0.15741440653800964, "35": 0.11409242451190948, "57": 0.7246322631835938, "0": 0.4013493061065674, "29": 0.08509059250354767, "36": -0.05860704556107521, "9": 0.21967020630836487, "4": 0.5122467279434204, "34": 0.4722413420677185, "53": 0.22181016206741333, "54": 0.037957582622766495, "60": 0.7449623942375183, "18": 0.6516865491867065, "52": 0.43999168276786804, "63": 0.7059052586555481, "67": -2.908655881881714, "11": 0.47253182530403137, "61": 0.622260570526123, "22": 0.1465834528207779, "5": 0.5359613299369812, "47": 0.3106747269630432, "64": -0.4629598557949066, "26": 0.5974307060241699, "62": 0.17566202580928802, "14": 0.2208821326494217, "65": -1.7834500074386597, "66": -0.5583474040031433, "33": 0.5257744193077087, "59": 0.3617914617061615, "51": 0.18235374987125397, "32": 1.1702806949615479, "27": 0.043802421540021896, "24": 0.20843882858753204, "25": 0.40261590480804443, "10": 0.02460453286767006, "48": 0.8465263843536377, "17": -0.2683912217617035, "2": 0.4104263186454773, "42": 0.7662456631660461, "8": 0.32878974080085754, "43": 0.5964787006378174, "1": 0.7096349000930786, "28": 1.0467405319213867, "31": 0.016399715095758438, "46": 0.8379963040351868, "38": -0.47935035824775696, "3": 0.44613882899284363, "49": 0.5950598120689392, "12": -0.0638345405459404, "37": -0.08833294361829758, "7": 0.8869713544845581, "41": 0.7639524936676025, "15": 0.35236719250679016, "20": 0.8852391242980957, "39": 0.596836507320404, "13": 0.6571639776229858, "23": 0.13360361754894257, "19": -0.018464460968971252, "56": 0.7048655152320862, "58": 0.7190623879432678, "30": -0.02778778038918972, "40": 0.6587908267974854, "44": 0.6355471014976501, "55": 0.48111721873283386, "21": -0.022236747667193413, "45": 0.6875741481781006, "50": 0.6862866878509521}}, {"depth": 68, "sx": 1, "sy": 1, "w": {"16": 0.01184809859842062, "6": -0.22611171007156372, "35": -0.4275655746459961, "57": -0.923214852809906, "0": -0.17938826978206635, "29": -0.24250422418117523, "36": -0.6883073449134827, "9": 0.5181620717048645, "4": 0.14057937264442444, "34": -0.8226185441017151, "53": -1.1169884204864502, "54": -0.5929780602455139, "60": -0.06502564996480942, "18": 0.5654306411743164, "52": -0.7764450311660767, "63": -0.5377734303474426, "67": -0.7293183207511902, "11": 0.3385769724845886, "61": -0.1930043250322342, "22": -0.30043327808380127, "5": 0.17899854481220245, "47": 1.4616374969482422, "64": 0.37672358751296997, "26": 0.8620763421058655, "62": -0.07307101041078568, "14": 0.19298063218593597, "65": 0.4929164946079254, "66": -0.07289279997348785, "33": -0.8635569214820862, "59": -0.6044442653656006, "51": -0.8182029128074646, "32": -1.0354031324386597, "27": 0.7538131475448608, "24": 0.06149545684456825, "25": -0.028716711327433586, "10": 0.17998924851417542, "48": -1.0982191562652588, "17": 0.45095202326774597, "2": 0.054009340703487396, "42": -0.04709991440176964, "8": 0.8831478953361511, "43": -0.34134507179260254, "1": 0.15816137194633484, "28": 0.9735150337219238, "31": -0.030189618468284607, "46": 0.9065707325935364, "38": -0.6796907782554626, "3": 0.5733826756477356, "49": -0.7837244272232056, "12": 0.8418782949447632, "37": -0.7012428045272827, "7": 0.12160684913396835, "41": -0.5198304057121277, "15": 0.043713077902793884, "20": -0.18884506821632385, "39": -0.5478009581565857, "13": 0.4919755458831787, "23": 0.3211391270160675, "19": 0.22281742095947266, "56": -1.0585569143295288, "58": -0.703580915927887, "30": -0.203607439994812, "40": -0.7796902656555176, "44": -0.28529876470565796, "55": -0.5913698077201843, "21": 0.04520789161324501, "45": 0.587506115436554, "50": -0.7023691534996033}}, {"depth": 68, "sx": 1, "sy": 1, "w": {"16": -0.10763189196586609, "6": 0.21360445022583008, "35": 0.4509565532207489, "57": 0.7006334066390991, "0": -0.05476764217019081, "29": 0.13942506909370422, "36": 0.1259154975414276, "9": 0.4559732675552368, "4": -0.1478733867406845, "34": 0.6062247157096863, "53": -0.40710991621017456, "54": -0.6456000804901123, "60": 0.4614245593547821, "18": -0.005424100439995527, "52": -0.5033418536186218, "63": 0.42034876346588135, "67": 0.1456695944070816, "11": 0.6737443804740906, "61": 0.5481946468353271, "22": 0.16395016014575958, "5": 0.4210977256298065, "47": 1.543623447418213, "64": -0.05786679685115814, "26": -0.25181564688682556, "62": 0.48042237758636475, "14": 0.2840992510318756, "65": -0.42426007986068726, "66": 0.28325310349464417, "33": 0.43738529086112976, "59": 0.6538991928100586, "51": -0.4863457977771759, "32": 0.07195644825696945, "27": -0.12270531803369522, "24": 0.5656053423881531, "25": 0.43765541911125183, "10": 0.6633376479148865, "48": 0.14228889346122742, "17": 0.024630965664982796, "2": -0.1488187611103058, "42": 